Language model created by QuickLM on Mon Feb 20 17:58:08 EST 2017
Copyright (c) 1996-2010 Carnegie Mellon University and Alexander I. Rudnicky

The model is in standard ARPA format, designed by Doug Paul while he was at MITRE.

The code that was used to produce this language model is available in Open Source.
Please visit http://www.speech.cs.cmu.edu/tools/ for more information

The (fixed) discount mass is 0.5. The backoffs are computed using the ratio method.
This model based on a corpus of 58 sentences and 60 words

\data\
ngram 1=60
ngram 2=116
ngram 3=58

\1-grams:
-2.5416 0 -0.2218
-2.5416 1 -0.2218
-2.5416 10 -0.2218
-2.5416 11 -0.2218
-2.5416 12 -0.2218
-2.5416 13 -0.2218
-2.5416 14 -0.2218
-2.5416 15 -0.2218
-2.5416 16 -0.2218
-2.5416 17 -0.2218
-2.5416 18 -0.2218
-2.5416 19 -0.2218
-2.5416 2 -0.2218
-2.5416 20 -0.2218
-2.5416 3 -0.2218
-2.5416 4 -0.2218
-2.5416 5 -0.2218
-2.5416 6 -0.2218
-2.5416 7 -0.2218
-2.5416 8 -0.2218
-2.5416 9 -0.2218
-0.7782 </s> -0.3010
-0.7782 <s> -0.2218
-2.5416 A -0.2218
-2.5416 AN -0.2218
-2.5416 AND -0.2218
-2.5416 BLACK -0.2218
-2.5416 BLUE -0.2218
-2.5416 CIRCLE -0.2218
-2.5416 DOWN -0.2218
-2.5416 DRAG -0.2218
-2.5416 GREEN -0.2218
-2.5416 GREY -0.2218
-2.5416 IN -0.2218
-2.5416 IT -0.2218
-2.5416 LARGE -0.2218
-2.5416 LEFT -0.2218
-2.5416 MEDIUM -0.2218
-2.5416 MOVE -0.2218
-2.5416 ORANGE -0.2218
-2.5416 OUT -0.2218
-2.5416 PIXELS -0.2218
-2.5416 PURPLE -0.2218
-2.5416 PUSH -0.2218
-2.5416 RED -0.2218
-2.5416 RIGHT -0.2218
-2.5416 SHORT -0.2218
-2.5416 SIZED -0.2218
-2.5416 SMALL -0.2218
-2.5416 SPHERE -0.2218
-2.5416 SQUARE -0.2218
-2.5416 TALL -0.2218
-2.5416 TEXT -0.2218
-2.5416 THE -0.2218
-2.5416 THEN -0.2218
-2.5416 TRANSLATE -0.2218
-2.5416 TRIANGLE -0.2218
-2.5416 UP -0.2218
-2.5416 WHITE -0.2218
-2.5416 YELLOW -0.2218

\2-grams:
-0.3010 0 </s> -0.3010
-0.3010 1 </s> -0.3010
-0.3010 10 </s> -0.3010
-0.3010 11 </s> -0.3010
-0.3010 12 </s> -0.3010
-0.3010 13 </s> -0.3010
-0.3010 14 </s> -0.3010
-0.3010 15 </s> -0.3010
-0.3010 16 </s> -0.3010
-0.3010 17 </s> -0.3010
-0.3010 18 </s> -0.3010
-0.3010 19 </s> -0.3010
-0.3010 2 </s> -0.3010
-0.3010 20 </s> -0.3010
-0.3010 3 </s> -0.3010
-0.3010 4 </s> -0.3010
-0.3010 5 </s> -0.3010
-0.3010 6 </s> -0.3010
-0.3010 7 </s> -0.3010
-0.3010 8 </s> -0.3010
-0.3010 9 </s> -0.3010
-2.0645 <s> 0 0.0000
-2.0645 <s> 1 0.0000
-2.0645 <s> 10 0.0000
-2.0645 <s> 11 0.0000
-2.0645 <s> 12 0.0000
-2.0645 <s> 13 0.0000
-2.0645 <s> 14 0.0000
-2.0645 <s> 15 0.0000
-2.0645 <s> 16 0.0000
-2.0645 <s> 17 0.0000
-2.0645 <s> 18 0.0000
-2.0645 <s> 19 0.0000
-2.0645 <s> 2 0.0000
-2.0645 <s> 20 0.0000
-2.0645 <s> 3 0.0000
-2.0645 <s> 4 0.0000
-2.0645 <s> 5 0.0000
-2.0645 <s> 6 0.0000
-2.0645 <s> 7 0.0000
-2.0645 <s> 8 0.0000
-2.0645 <s> 9 0.0000
-2.0645 <s> A 0.0000
-2.0645 <s> AN 0.0000
-2.0645 <s> AND 0.0000
-2.0645 <s> BLACK 0.0000
-2.0645 <s> BLUE 0.0000
-2.0645 <s> CIRCLE 0.0000
-2.0645 <s> DOWN 0.0000
-2.0645 <s> DRAG 0.0000
-2.0645 <s> GREEN 0.0000
-2.0645 <s> GREY 0.0000
-2.0645 <s> IN 0.0000
-2.0645 <s> IT 0.0000
-2.0645 <s> LARGE 0.0000
-2.0645 <s> LEFT 0.0000
-2.0645 <s> MEDIUM 0.0000
-2.0645 <s> MOVE 0.0000
-2.0645 <s> ORANGE 0.0000
-2.0645 <s> OUT 0.0000
-2.0645 <s> PIXELS 0.0000
-2.0645 <s> PURPLE 0.0000
-2.0645 <s> PUSH 0.0000
-2.0645 <s> RED 0.0000
-2.0645 <s> RIGHT 0.0000
-2.0645 <s> SHORT 0.0000
-2.0645 <s> SIZED 0.0000
-2.0645 <s> SMALL 0.0000
-2.0645 <s> SPHERE 0.0000
-2.0645 <s> SQUARE 0.0000
-2.0645 <s> TALL 0.0000
-2.0645 <s> TEXT 0.0000
-2.0645 <s> THE 0.0000
-2.0645 <s> THEN 0.0000
-2.0645 <s> TRANSLATE 0.0000
-2.0645 <s> TRIANGLE 0.0000
-2.0645 <s> UP 0.0000
-2.0645 <s> WHITE 0.0000
-2.0645 <s> YELLOW 0.0000
-0.3010 A </s> -0.3010
-0.3010 AN </s> -0.3010
-0.3010 AND </s> -0.3010
-0.3010 BLACK </s> -0.3010
-0.3010 BLUE </s> -0.3010
-0.3010 CIRCLE </s> -0.3010
-0.3010 DOWN </s> -0.3010
-0.3010 DRAG </s> -0.3010
-0.3010 GREEN </s> -0.3010
-0.3010 GREY </s> -0.3010
-0.3010 IN </s> -0.3010
-0.3010 IT </s> -0.3010
-0.3010 LARGE </s> -0.3010
-0.3010 LEFT </s> -0.3010
-0.3010 MEDIUM </s> -0.3010
-0.3010 MOVE </s> -0.3010
-0.3010 ORANGE </s> -0.3010
-0.3010 OUT </s> -0.3010
-0.3010 PIXELS </s> -0.3010
-0.3010 PURPLE </s> -0.3010
-0.3010 PUSH </s> -0.3010
-0.3010 RED </s> -0.3010
-0.3010 RIGHT </s> -0.3010
-0.3010 SHORT </s> -0.3010
-0.3010 SIZED </s> -0.3010
-0.3010 SMALL </s> -0.3010
-0.3010 SPHERE </s> -0.3010
-0.3010 SQUARE </s> -0.3010
-0.3010 TALL </s> -0.3010
-0.3010 TEXT </s> -0.3010
-0.3010 THE </s> -0.3010
-0.3010 THEN </s> -0.3010
-0.3010 TRANSLATE </s> -0.3010
-0.3010 TRIANGLE </s> -0.3010
-0.3010 UP </s> -0.3010
-0.3010 WHITE </s> -0.3010
-0.3010 YELLOW </s> -0.3010

\3-grams:
-0.3010 <s> 0 </s>
-0.3010 <s> 1 </s>
-0.3010 <s> 10 </s>
-0.3010 <s> 11 </s>
-0.3010 <s> 12 </s>
-0.3010 <s> 13 </s>
-0.3010 <s> 14 </s>
-0.3010 <s> 15 </s>
-0.3010 <s> 16 </s>
-0.3010 <s> 17 </s>
-0.3010 <s> 18 </s>
-0.3010 <s> 19 </s>
-0.3010 <s> 2 </s>
-0.3010 <s> 20 </s>
-0.3010 <s> 3 </s>
-0.3010 <s> 4 </s>
-0.3010 <s> 5 </s>
-0.3010 <s> 6 </s>
-0.3010 <s> 7 </s>
-0.3010 <s> 8 </s>
-0.3010 <s> 9 </s>
-0.3010 <s> A </s>
-0.3010 <s> AN </s>
-0.3010 <s> AND </s>
-0.3010 <s> BLACK </s>
-0.3010 <s> BLUE </s>
-0.3010 <s> CIRCLE </s>
-0.3010 <s> DOWN </s>
-0.3010 <s> DRAG </s>
-0.3010 <s> GREEN </s>
-0.3010 <s> GREY </s>
-0.3010 <s> IN </s>
-0.3010 <s> IT </s>
-0.3010 <s> LARGE </s>
-0.3010 <s> LEFT </s>
-0.3010 <s> MEDIUM </s>
-0.3010 <s> MOVE </s>
-0.3010 <s> ORANGE </s>
-0.3010 <s> OUT </s>
-0.3010 <s> PIXELS </s>
-0.3010 <s> PURPLE </s>
-0.3010 <s> PUSH </s>
-0.3010 <s> RED </s>
-0.3010 <s> RIGHT </s>
-0.3010 <s> SHORT </s>
-0.3010 <s> SIZED </s>
-0.3010 <s> SMALL </s>
-0.3010 <s> SPHERE </s>
-0.3010 <s> SQUARE </s>
-0.3010 <s> TALL </s>
-0.3010 <s> TEXT </s>
-0.3010 <s> THE </s>
-0.3010 <s> THEN </s>
-0.3010 <s> TRANSLATE </s>
-0.3010 <s> TRIANGLE </s>
-0.3010 <s> UP </s>
-0.3010 <s> WHITE </s>
-0.3010 <s> YELLOW </s>

\end\
