Language model created by QuickLM on Sun Feb 19 21:20:01 EST 2017
Copyright (c) 1996-2010 Carnegie Mellon University and Alexander I. Rudnicky

The model is in standard ARPA format, designed by Doug Paul while he was at MITRE.

The code that was used to produce this language model is available in Open Source.
Please visit http://www.speech.cs.cmu.edu/tools/ for more information

The (fixed) discount mass is 0.5. The backoffs are computed using the ratio method.
This model based on a corpus of 5815 sentences and 715 words

\data\
ngram 1=715
ngram 2=1426
ngram 3=714

\1-grams:
-4.2417 0 -0.2219
-4.5427 0.5 -0.2219
-4.5427 0000 -0.2219
-4.5427 01 -0.2219
-3.6396 1 -0.2219
-4.5427 1.02 -0.2219
-4.5427 1.05 -0.2219
-4.0656 1.1 -0.2219
-4.2417 1.5 -0.2219
-4.2417 10 -0.2219
-4.2417 10.05 -0.2219
-4.5427 10.09 -0.2219
-4.5427 10.2 -0.2219
-4.0656 10.9 -0.2219
-4.5427 100 -0.2219
-4.5427 12 -0.2219
-4.0656 15 -0.2219
-4.2417 2 -0.2219
-4.5427 2.02 -0.2219
-4.2417 2.05 -0.2219
-3.8438 2.1 -0.2219
-4.5427 2.15 -0.2219
-4.5427 2.54 -0.2219
-4.5427 2.7 -0.2219
-4.5427 20 -0.2219
-4.5427 20.3 -0.2219
-3.9407 200 -0.2219
-4.5427 21 -0.2219
-4.5427 21.8 -0.2219
-4.2417 22 -0.2219
-4.5427 22.5 -0.2219
-4.5427 225 -0.2219
-4.5427 23 -0.2219
-4.5427 25 -0.2219
-4.2417 250 -0.2219
-4.5427 27 -0.2219
-3.7646 3D -0.2219
-4.5427 41 -0.2219
-4.5427 5,000 -0.2219
-4.5427 50 -0.2219
-4.5427 6B -0.2219
-4.5427 75 -0.2219
-4.5427 796 -0.2219
-4.5427 8A -0.2219
-4.2417 90 -0.2219
-4.5427 9C -0.2219
-0.7782 </s> -0.3010
-0.7782 <s> -0.2218
-2.5982 A -0.2219
-3.5013 ABOUT -0.2219
-4.2417 ABOVE -0.2219
-4.5427 ACCURATE -0.2219
-3.0242 ADD -0.2219
-3.8438 ADDED -0.2219
-3.5885 ADDING -0.2219
-4.5427 ADDITIONAL -0.2219
-4.5427 ADJUSTMENTS -0.2219
-4.5427 AFFECTING -0.2219
-4.2417 AFTER -0.2219
-3.3966 AGAIN -0.2219
-4.5427 AGE -0.2219
-4.2417 AGED -0.2219
-3.4288 ALL -0.2219
-4.5427 ALLOW -0.2219
-3.6976 ALSO -0.2219
-3.6976 ALT -0.2219
-3.5427 AN -0.2219
-2.3496 AND -0.2219
-4.2417 ANGLED -0.2219
-3.2417 ANIMATION -0.2219
-4.0656 ANOTHER -0.2219
-4.5427 ANSWER -0.2219
-4.5427 ANY -0.2219
-3.5427 ARE -0.2219
-4.5427 AREA -0.2219
-4.0656 AREAS -0.2219
-3.6396 AROUND -0.2219
-4.2417 AS -0.2219
-4.5427 ASSIGN -0.2219
-4.5427 ASSUMING -0.2219
-3.3123 AT -0.2219
-4.5427 AUXILIARY -0.2219
-4.5427 AWARE -0.2219
-4.5427 AWAY -0.2219
-3.8438 AXIS -0.2219
-3.5885 BACK -0.2219
-4.5427 BACKGROUND -0.2219
-4.5427 BACKSPACE -0.2219
-4.2417 BAKE -0.2219
-4.5427 BAKED -0.2219
-3.9407 BAKING -0.2219
-4.5427 BALANCED -0.2219
-4.5427 BALANCES -0.2219
-4.5427 BAR -0.2219
-2.9864 BE -0.2219
-4.2417 BE4 -0.2219
-4.2417 BECAUSE -0.2219
-4.5427 BECOME -0.2219
-4.2417 BEFORE -0.2219
-4.2417 BEGINNING -0.2219
-4.2417 BEING -0.2219
-4.5427 BELOW -0.2219
-3.7646 BETTER -0.2219
-4.0656 BETWEEN -0.2219
-4.2417 BEVEL -0.2219
-4.5427 BEVELED -0.2219
-4.5427 BEYOND -0.2219
-4.5427 BIG-TIME -0.2219
-4.5427 BIT -0.2219
-4.2417 BLACK -0.2219
-4.0656 BLEND -0.2219
-4.5427 BLENDED -0.2219
-3.8438 BLENDER -0.2219
-4.2417 BORDER -0.2219
-3.5427 BOTTOM -0.2219
-4.5427 BOUNCE -0.2219
-4.5427 BOUNCES -0.2219
-4.5427 BOUNCING -0.2219
-4.0656 BOX -0.2219
-4.5427 BRIGHT -0.2219
-4.2417 BRING -0.2219
-3.7646 BUT -0.2219
-2.8267 BUTTON -0.2219
-2.8800 BY -0.2219
-4.2417 CAB -0.2219
-3.5427 CAMERA -0.2219
-2.9299 CAN -0.2219
-4.5427 CAPABILITIES -0.2219
-4.2417 CASE -0.2219
-4.5427 CAUSE -0.2219
-3.5427 CENTER -0.2219
-3.6976 CENTERED -0.2219
-4.5427 CENTRE -0.2219
-3.7646 CHANGE -0.2219
-3.9407 CHANGES -0.2219
-3.6976 CHANNEL -0.2219
-3.7646 CHANNELS -0.2219
-4.5427 CHECKER -0.2219
-4.5427 CHECKMARK -0.2219
-4.5427 CHOOSE -0.2219
-4.5427 CLAMP -0.2219
-2.5650 CLICK -0.2219
-4.5427 CLICKING -0.2219
-4.5427 CLOSE -0.2219
-3.2205 COLOR -0.2219
-4.2417 COME -0.2219
-4.2417 COMING -0.2219
-4.5427 COMMENT -0.2219
-4.5427 COMPOSITING -0.2219
-4.0656 COMPUTER -0.2219
-4.5427 CONCLUDES -0.2219
-3.7646 CONCRETE -0.2219
-3.8438 CONNECT -0.2219
-4.5427 CONNECTED -0.2219
-4.5427 CONNECTING -0.2219
-4.0656 CONNECTION -0.2219
-4.5427 CONTRAST -0.2219
-3.6976 CONTROL -0.2219
-4.2417 CONTROLLED -0.2219
-4.5427 CONVERT -0.2219
-3.5885 COPPER -0.2219
-3.6396 COPY -0.2219
-4.5427 CORNERS -0.2219
-4.5427 CORRECT -0.2219
-4.5427 COST -0.2219
-4.5427 COUPLE -0.2219
-4.5427 CREATING -0.2219
-3.6976 CTRL -0.2219
-3.5427 CUBE -0.2219
-4.5427 CUBED -0.2219
-4.5427 CURRENT -0.2219
-4.2417 CURRENTLY -0.2219
-4.2417 CURSOR -0.2219
-4.5427 CURVE -0.2219
-3.7646 CUT -0.2219
-4.5427 CUTS -0.2219
-4.5427 CYCLE -0.2219
-4.2417 D -0.2219
-4.5427 DAMN -0.2219
-4.5427 DARKEN -0.2219
-4.0656 DATA -0.2219
-4.2417 DAY -0.2219
-4.5427 DECIDE -0.2219
-3.8438 DEFAULT -0.2219
-4.2417 DEFINE -0.2219
-3.8438 DELETE -0.2219
-4.5427 DEMONSTRATING -0.2219
-3.9407 DEPTH -0.2219
-4.5427 DESCRIPTION -0.2219
-4.5427 DETAIL -0.2219
-4.2417 DID -0.2219
-4.0656 DIFFERENT -0.2219
-3.8438 DIFFUSE -0.2219
-4.5427 DIRECTION -0.2219
-4.2417 DIRECTIONS -0.2219
-4.5427 DIRECTORIES -0.2219
-3.9407 DIRECTORY -0.2219
-3.9407 DIRTY -0.2219
-4.5427 DISPLACEMENT -0.2219
-4.5427 DISPLAY -0.2219
-4.5427 DISTANCE -0.2219
-4.5427 DIVISION -0.2219
-4.0656 DIVISIONS -0.2219
-3.5427 DO -0.2219
-4.2417 DOES -0.2219
-4.5427 DOESN'T -0.2219
-3.8438 DOMAIN -0.2219
-4.2417 DON'T -0.2219
-3.7646 DONE -0.2219
-4.5427 DOTS -0.2219
-3.2640 DOWN -0.2219
-4.5427 DOWNLOADING -0.2219
-3.3386 DRAG -0.2219
-4.5427 DRAGGED -0.2219
-4.0656 DROP -0.2219
-3.9407 DROP-DOWN -0.2219
-4.5427 DUPLICATED -0.2219
-4.2417 DURING -0.2219
-3.4288 E -0.2219
-4.2417 EACH -0.2219
-4.0656 EARLIER -0.2219
-4.5427 EASIER -0.2219
-3.0956 EDGE -0.2219
-3.4288 EDGES -0.2219
-3.5013 EDIT -0.2219
-3.5885 EDITOR -0.2219
-4.5427 EDITORS -0.2219
-4.2417 EFFECT -0.2219
-3.9407 EIGHT -0.2219
-4.5427 EIGHT-SECOND -0.2219
-4.2417 ELBOW -0.2219
-3.4635 END -0.2219
-3.1114 ENTER -0.2219
-4.5427 ENTRY -0.2219
-4.5427 EQUIVALENT -0.2219
-4.5427 ESCAPE -0.2219
-4.5427 EVEN -0.2219
-4.5427 EXAMPLE -0.2219
-4.2417 EXPAND -0.2219
-4.5427 EXPLORER -0.2219
-4.5427 EXTENDING -0.2219
-4.2417 EXTENDS -0.2219
-3.3123 EXTRUDE -0.2219
-4.0656 F -0.2219
-4.0656 F10 -0.2219
-4.5427 F11 -0.2219
-4.0656 FACE -0.2219
-3.6976 FACES -0.2219
-4.5427 FACING -0.2219
-4.2417 FACTOR -0.2219
-4.5427 FALL -0.2219
-3.9407 FAR -0.2219
-4.5427 FAST -0.2219
-4.5427 FEAR -0.2219
-4.2417 FEW -0.2219
-4.0656 FF -0.2219
-3.7646 FILE -0.2219
-4.5427 FILM -0.2219
-3.9407 FINAL -0.2219
-4.5427 FIND -0.2219
-4.5427 FINE -0.2219
-4.5427 FINISH -0.2219
-4.5427 FINISHED -0.2219
-4.5427 FIREFLIES -0.2219
-3.7646 FIRST -0.2219
-4.2417 FITTING -0.2219
-4.0656 FIVE -0.2219
-4.2417 FIX -0.2219
-4.5427 FLOAT -0.2219
-3.3666 FLOOR -0.2219
-4.2417 FLOW -0.2219
-3.0956 FLUID -0.2219
-4.5427 FOOT -0.2219
-2.7945 FOR -0.2219
-4.2417 FORMAT -0.2219
-4.5427 FORMATS -0.2219
-4.5427 FORMS -0.2219
-4.5427 FORWARD -0.2219
-4.5427 FOUR -0.2219
-3.7646 FRAME -0.2219
-4.5427 FRAMES -0.2219
-3.3666 FROM -0.2219
-3.4635 FRONT -0.2219
-4.5427 FULLEST -0.2219
-3.8438 G -0.2219
-4.0656 GAMMA -0.2219
-4.0656 GEOMETRY -0.2219
-4.0656 GET -0.2219
-4.5427 GLASS -0.2219
-3.5013 GLOSSY -0.2219
-4.5427 GO -0.2219
-4.2417 GOES -0.2219
-2.9195 GOING -0.2219
-3.9407 GOOD -0.2219
-4.5427 GRADE -0.2219
-4.2417 GRAPH -0.2219
-4.5427 GRASS -0.2219
-4.5427 GRAY -0.2219
-4.0656 GRID -0.2219
-4.5427 HAD -0.2219
-4.5427 HALF -0.2219
-3.6396 HAVE -0.2219
-4.2417 HELP -0.2219
-3.6976 HERE -0.2219
-4.0656 HEX -0.2219
-4.5427 HIGHER -0.2219
-3.7646 HOLD -0.2219
-4.5427 HOLDING -0.2219
-4.5427 HOLDS -0.2219
-4.5427 HORA -0.2219
-3.8438 HOW -0.2219
-4.5427 HUMAN -0.2219
-3.5885 I -0.2219
-4.5427 I'D -0.2219
-3.5427 I'LL -0.2219
-3.2417 I'M -0.2219
-4.5427 I'VE -0.2219
-4.2417 IDEA -0.2219
-3.5013 IF -0.2219
-3.2205 IMAGE -0.2219
-2.8184 IN -0.2219
-4.2417 INCREASES -0.2219
-4.5427 INCREASING -0.2219
-4.5427 INDIRECT -0.2219
-4.5427 INDIVIDUAL -0.2219
-4.2417 INFLOW -0.2219
-3.6976 INPUT -0.2219
-4.0656 INSIDE -0.2219
-4.5427 INTERACT -0.2219
-4.5427 INTERFERE -0.2219
-4.2417 INTERVIEW -0.2219
-3.5427 INTO -0.2219
-2.8352 IS -0.2219
-2.5696 IT -0.2219
-3.3123 IT'S -0.2219
-3.9407 ITS -0.2219
-4.5427 ITSELF -0.2219
-4.5427 JUST -0.2219
-3.9407 KEEP -0.2219
-3.5885 KEY -0.2219
-4.5427 KEYFRAME -0.2219
-4.5427 L -0.2219
-4.2417 LAMP -0.2219
-4.5427 LARGEST -0.2219
-4.2417 LAST -0.2219
-4.0656 LATER -0.2219
-4.5427 LAYER -0.2219
-3.9407 LAYOUT -0.2219
-4.0656 LEAVE -0.2219
-3.1448 LEFT -0.2219
-4.5427 LEFT-CLICK -0.2219
-4.0656 LENGTH -0.2219
-3.3386 LET'S -0.2219
-4.2417 LIGHT -0.2219
-3.4288 LIKE -0.2219
-4.5427 LIMITS -0.2219
-4.5427 LINES -0.2219
-4.5427 LINK -0.2219
-3.7646 LITTLE -0.2219
-4.5427 LOCATED -0.2219
-3.5013 LOCATION -0.2219
-4.2417 LOCK -0.2219
-4.2417 LONG -0.2219
-4.2417 LONGER -0.2219
-3.4635 LOOK -0.2219
-3.9407 LOOKING -0.2219
-3.6396 LOOKS -0.2219
-3.7646 LOOP -0.2219
-4.5427 LOU -0.2219
-4.5427 MAIN -0.2219
-4.5427 MAJOR -0.2219
-3.2205 MAKE -0.2219
-3.9407 MAKING -0.2219
-3.0514 MATERIAL -0.2219
-4.2417 MATERIALS -0.2219
-4.5427 MAXIMUM -0.2219
-4.2417 MAY -0.2219
-4.2417 MEG -0.2219
-3.8438 MEMORY -0.2219
-3.5885 MENU -0.2219
-3.9407 MESH -0.2219
-4.5427 MESS -0.2219
-4.5427 MET -0.2219
-4.5427 META -0.2219
-4.5427 MIDDLE -0.2219
-4.5427 MINOR -0.2219
-4.5427 MINUS -0.2219
-4.0656 MINUTES -0.2219
-3.7646 MIX -0.2219
-4.5427 MIXED -0.2219
-3.2417 MODE -0.2219
-4.0656 MODELING -0.2219
-3.5427 MODIFIER -0.2219
-3.8438 MODIFIERS -0.2219
-4.5427 MODIFY -0.2219
-4.2417 MODIFYING -0.2219
-3.5427 MORE -0.2219
-4.5427 MOTION -0.2219
-3.5013 MOUSE -0.2219
-3.3966 MOVE -0.2219
-4.5427 MOVEMENT -0.2219
-4.0656 MOVIE -0.2219
-3.7646 MOVING -0.2219
-4.5427 MULTIPLE -0.2219
-4.2417 MY -0.2219
-3.9407 NAME -0.2219
-4.5427 NAMED -0.2219
-4.2417 NAVIGATE -0.2219
-3.5885 NEAR -0.2219
-3.4635 NEED -0.2219
-3.4635 NEW -0.2219
-2.9864 NEXT -0.2219
-4.5427 NINE -0.2219
-4.2417 NO -0.2219
-3.7646 NODE -0.2219
-4.0656 NODES -0.2219
-3.7646 NOISE -0.2219
-4.5427 NONE -0.2219
-3.7646 NOT -0.2219
-4.5427 NOTHING -0.2219
-4.0656 NOTICE -0.2219
-2.5742 NOW -0.2219
-3.2205 NUMBER -0.2219
-4.5427 NZ -0.2219
-3.3666 OBJECT -0.2219
-4.2417 OBJECTS -0.2219
-4.0656 OBSTACLE -0.2219
-2.6133 OF -0.2219
-4.0656 OFF -0.2219
-3.7646 OFFSET -0.2219
-4.5427 OK -0.2219
-4.5427 OLDER -0.2219
-2.7232 ON -0.2219
-3.6976 ONCE -0.2219
-3.7646 ONE -0.2219
-4.5427 ONE-QUARTER -0.2219
-4.0656 ONLY -0.2219
-3.6976 OPEN -0.2219
-4.0656 OPENING -0.2219
-4.0656 OPTIONS -0.2219
-3.5427 OR -0.2219
-3.8438 ORIGIN -0.2219
-4.5427 ORIGINAL -0.2219
-4.5427 ORTHOGRAPHIC -0.2219
-3.9407 OTHER -0.2219
-3.4288 OUR -0.2219
-3.5427 OUT -0.2219
-3.8438 OUTPUT -0.2219
-3.9407 OUTSIDE -0.2219
-3.4288 OVER -0.2219
-4.5427 OVERLAID -0.2219
-4.5427 OWN -0.2219
-3.2640 PAD -0.2219
-3.1448 PAN -0.2219
-3.7646 PANEL -0.2219
-4.2417 PART -0.2219
-4.5427 PAST -0.2219
-4.0656 PAUSE -0.2219
-4.5427 PERFECT -0.2219
-4.2417 PERSPECTIVE -0.2219
-4.0656 PHYSICS -0.2219
-3.0956 PIPE -0.2219
-4.5427 PIPER -0.2219
-4.2417 PIPES -0.2219
-4.2417 PLACE -0.2219
-4.5427 PLANE -0.2219
-4.5427 PLATE -0.2219
-3.6976 PLAY -0.2219
-4.2417 PLAYER -0.2219
-4.5427 PLAYING -0.2219
-4.5427 PLEASE -0.2219
-4.2417 PLUS -0.2219
-3.4635 POINT -0.2219
-4.2417 POINT2 -0.2219
-3.2875 POSITION -0.2219
-2.5933 PRESS -0.2219
-3.0514 PRESSING -0.2219
-3.8438 PREVENT -0.2219
-4.5427 PREVIOUS -0.2219
-4.5427 PROBLEMS -0.2219
-4.0656 PROCESS -0.2219
-4.5427 PRODUCES -0.2219
-4.2417 PROGRESS -0.2219
-3.6396 PROJECT -0.2219
-4.2417 PROJECTS -0.2219
-3.9407 PROPERTIES -0.2219
-3.9407 PUT -0.2219
-4.5427 QUICKER -0.2219
-4.5427 QUITE -0.2219
-3.7646 R -0.2219
-4.2417 RADIUS -0.2219
-4.0656 READY -0.2219
-4.2417 REDUCE -0.2219
-4.5427 REFERRED -0.2219
-4.5427 REFLECTIONS -0.2219
-4.5427 RELOAD -0.2219
-3.3966 RENDER -0.2219
-3.8438 RENDERED -0.2219
-3.9407 RENDERING -0.2219
-4.5427 RENTED -0.2219
-4.2417 REPEAT -0.2219
-4.5427 REPLACE -0.2219
-4.5427 REQUIRE -0.2219
-3.9407 REQUIRED -0.2219
-4.5427 RESIZE -0.2219
-4.0656 RESOLUTION -0.2219
-4.5427 RESTING -0.2219
-4.5427 RESTLESS -0.2219
-4.0656 RESULT -0.2219
-3.6976 RETURN -0.2219
-3.1278 RIGHT -0.2219
-3.3386 RIGHT-CLICK -0.2219
-4.5427 RIGHT-CLICKING -0.2219
-4.5427 RIM -0.2219
-4.5427 ROOM -0.2219
-3.9407 ROTATE -0.2219
-4.5427 ROTATED -0.2219
-3.5885 ROTATION -0.2219
-4.0656 ROUGHNESS -0.2219
-4.2417 ROUND -0.2219
-4.5427 ROUNDED -0.2219
-4.5427 RUN -0.2219
-3.5013 S -0.2219
-3.9407 SAME -0.2219
-4.5427 SAMPLE -0.2219
-4.5427 SAMPLES -0.2219
-3.7646 SAVE -0.2219
-4.2417 SAVED -0.2219
-3.2640 SCALE -0.2219
-4.5427 SCALED -0.2219
-4.2417 SCENE -0.2219
-3.9407 SCREEN -0.2219
-4.2417 SCREWED -0.2219
-4.0656 SCRUB -0.2219
-4.2417 SECOND -0.2219
-3.9407 SECONDS -0.2219
-4.0656 SECTION -0.2219
-3.2003 SEE -0.2219
-4.5427 SEEMS -0.2219
-4.2417 SEEN -0.2219
-2.7102 SELECT -0.2219
-3.2875 SELECTED -0.2219
-4.2417 SELECTION -0.2219
-4.5427 SEND -0.2219
-4.2417 SEPARATE -0.2219
-2.7945 SET -0.2219
-4.0656 SETTING -0.2219
-4.5427 SETTINGS -0.2219
-3.9407 SEVEN -0.2219
-3.3386 SHADER -0.2219
-4.2417 SHADERS -0.2219
-4.5427 SHAPE -0.2219
-4.5427 SHARPEN -0.2219
-4.5427 SHE -0.2219
-3.3123 SHIFT -0.2219
-3.6976 SHOULD -0.2219
-4.5427 SHOULDN'T -0.2219
-4.5427 SHOW -0.2219
-4.5427 SHOWING -0.2219
-4.5427 SHOWN -0.2219
-4.5427 SHOWS -0.2219
-4.5427 SHUT -0.2219
-3.5885 SIDE -0.2219
-3.5427 SIMULATION -0.2219
-4.2417 SINCE -0.2219
-4.5427 SIT -0.2219
-4.0656 SIX -0.2219
-3.3123 SIZE -0.2219
-3.8438 SLIDE -0.2219
-4.2417 SLOW -0.2219
-4.5427 SMALL -0.2219
-3.6976 SMOOTH -0.2219
-2.5605 SO -0.2219
-3.3966 SOLDER -0.2219
-3.6976 SOLID -0.2219
-3.5427 SOME -0.2219
-4.5427 SOMEBODY -0.2219
-4.0656 SOMETHING -0.2219
-4.0656 SOMETIMES -0.2219
-4.0656 SOURCE -0.2219
-4.5427 SPECIFIED -0.2219
-4.5427 SPECKLES -0.2219
-4.5427 SPEED -0.2219
-4.0656 SPHERE -0.2219
-4.2417 SPLIT -0.2219
-4.5427 SPOTS -0.2219
-3.6396 START -0.2219
-4.5427 STARTED -0.2219
-4.5427 STARTUP -0.2219
-4.2417 STILL -0.2219
-4.2417 STOP -0.2219
-3.8438 STRAIGHT -0.2219
-4.5427 STREAM -0.2219
-3.8438 STRENGTH -0.2219
-4.5427 STRETCH -0.2219
-4.5427 SUB-DIRECTORY -0.2219
-3.9407 SUBDIVISION -0.2219
-4.5427 SUBSCRIBE -0.2219
-3.8438 SURE -0.2219
-4.5427 SURF -0.2219
-3.4288 SURFACE -0.2219
-4.5427 SURRENDER -0.2219
-4.5427 SURRENDERED -0.2219
-3.1448 SWITCH -0.2219
-4.2417 SYNC -0.2219
-3.2875 TAB -0.2219
-4.2417 TAKE -0.2219
-4.5427 TAN -0.2219
-3.1114 TEXT -0.2219
-4.5427 TEXTS -0.2219
-3.7646 TEXTURE -0.2219
-3.5885 THAN -0.2219
-4.5427 THANKS -0.2219
-2.6915 THAT -0.2219
-4.2417 THAT'S -0.2219
-1.7660 THE -0.2219
-4.2417 THEM -0.2219
-2.2374 THEN -0.2219
-4.5427 THEN- -0.3010
-4.0656 THERE -0.2219
-3.7646 THESE -0.2219
-4.2417 THICKNESS -0.2219
-4.5427 THINGS -0.2219
-2.6236 THIS -0.2219
-4.5427 THOUGHT -0.2219
-3.5427 THREE -0.2219
-3.8438 THROUGH -0.2219
-4.5427 THU -0.2219
-3.8438 TIME -0.2219
-4.0656 TIMELINE -0.2219
-2.0909 TO -0.2219
-4.5427 TOGETHER -0.2219
-4.0656 TOO -0.2219
-4.2417 TOOK -0.2219
-4.5427 TOOLS -0.2219
-3.2640 TOP -0.2219
-3.8438 TORUS -0.2219
-4.5427 TOURISTS -0.2219
-4.5427 TOWARD -0.2219
-4.5427 TRIANGLE -0.2219
-4.5427 TUNE -0.2219
-4.5427 TURN -0.2219
-3.7646 TWICE -0.2219
-3.6396 TWO -0.2219
-3.5885 TYPE -0.2219
-4.2417 UNDER -0.2219
-3.2875 UNTIL -0.2219
-4.5427 UNWANTED -0.2219
-3.7646 UNWRAP -0.2219
-4.2417 UNWRAPPED -0.2219
-3.0376 UP -0.2219
-4.5427 US -0.2219
-3.2875 USE -0.2219
-3.9407 USED -0.2219
-3.9407 USING -0.2219
-4.2417 UV -0.2219
-4.2417 UV/IMAGE -0.2219
-3.1810 VALUE -0.2219
-3.6976 VALUES -0.2219
-4.5427 VARY -0.2219
-4.5427 VELOCITY -0.2219
-3.7646 VERIFY -0.2219
-4.2417 VERSION -0.2219
-4.0656 VERTEX -0.2219
-3.1625 VERTICES -0.2219
-4.5427 VERY -0.2219
-3.5885 VIDEO -0.2219
-2.7945 VIEW -0.2219
-4.5427 VIEWPORT -0.2219
-4.5427 VISIBLE -0.2219
-4.5427 WAIT -0.2219
-3.9407 WANT -0.2219
-4.5427 WAS -0.2219
-4.5427 WATCH -0.2219
-4.5427 WATCHING -0.2219
-3.3666 WATER -0.2219
-4.0656 WAY -0.2219
-2.9864 WE -0.2219
-3.2205 WE'LL -0.2219
-3.1810 WE'RE -0.2219
-4.5427 WEDGES -0.2219
-4.0656 WELL -0.2219
-3.4635 WHAT -0.2219
-3.6976 WHEN -0.2219
-3.6976 WHERE -0.2219
-3.9407 WHICH -0.2219
-3.8438 WHILE -0.2219
-3.9407 WHITE -0.2219
-4.2417 WHOLE -0.2219
-4.5427 WHY -0.2219
-4.5427 WIFE -0.2219
-2.8615 WILL -0.2219
-3.5427 WINDOW -0.2219
-4.5427 WINDOWS -0.2219
-4.0656 WIREFRAME -0.2219
-3.3666 WITH -0.2219
-3.7646 WITHOUT -0.2219
-4.5427 WON'T -0.2219
-4.5427 WORD -0.2219
-4.0656 WORK -0.2219
-4.5427 WORLD -0.2219
-4.2417 WRONG -0.2219
-3.3123 X -0.2219
-3.5427 X-AXIS -0.2219
-4.5427 Y -0.2219
-2.9407 YOU -0.2219
-3.9407 YOU'LL -0.2219
-4.2417 YOU'RE -0.2219
-3.6976 YOUR -0.2219
-4.5427 YOUTH -0.2219
-3.5013 Z -0.2219
-4.5427 Z-AXIS -0.2219
-4.5427 Z-DIRECTION -0.2219
-4.5427 ZERO -0.2219
-3.6396 ZOOM -0.2219

\2-grams:
-0.3010 0 </s> -0.3010
-0.3010 0.5 </s> -0.3010
-0.3010 0000 </s> -0.3010
-0.3010 01 </s> -0.3010
-0.3010 1 </s> -0.3010
-0.3010 1.02 </s> -0.3010
-0.3010 1.05 </s> -0.3010
-0.3010 1.1 </s> -0.3010
-0.3010 1.5 </s> -0.3010
-0.3010 10 </s> -0.3010
-0.3010 10.05 </s> -0.3010
-0.3010 10.09 </s> -0.3010
-0.3010 10.2 </s> -0.3010
-0.3010 10.9 </s> -0.3010
-0.3010 100 </s> -0.3010
-0.3010 12 </s> -0.3010
-0.3010 15 </s> -0.3010
-0.3010 2 </s> -0.3010
-0.3010 2.02 </s> -0.3010
-0.3010 2.05 </s> -0.3010
-0.3010 2.1 </s> -0.3010
-0.3010 2.15 </s> -0.3010
-0.3010 2.54 </s> -0.3010
-0.3010 2.7 </s> -0.3010
-0.3010 20 </s> -0.3010
-0.3010 20.3 </s> -0.3010
-0.3010 200 </s> -0.3010
-0.3010 21 </s> -0.3010
-0.3010 21.8 </s> -0.3010
-0.3010 22 </s> -0.3010
-0.3010 22.5 </s> -0.3010
-0.3010 225 </s> -0.3010
-0.3010 23 </s> -0.3010
-0.3010 25 </s> -0.3010
-0.3010 250 </s> -0.3010
-0.3010 27 </s> -0.3010
-0.3010 3D </s> -0.3010
-0.3010 41 </s> -0.3010
-0.3010 5,000 </s> -0.3010
-0.3010 50 </s> -0.3010
-0.3010 6B </s> -0.3010
-0.3010 75 </s> -0.3010
-0.3010 796 </s> -0.3010
-0.3010 8A </s> -0.3010
-0.3010 90 </s> -0.3010
-0.3010 9C </s> -0.3010
-3.7645 <s> 0 0.0000
-4.0656 <s> 0.5 0.0000
-4.0656 <s> 0000 0.0000
-4.0656 <s> 01 0.0000
-3.1625 <s> 1 0.0000
-4.0656 <s> 1.02 0.0000
-4.0656 <s> 1.05 0.0000
-3.5885 <s> 1.1 0.0000
-3.7645 <s> 1.5 0.0000
-3.7645 <s> 10 0.0000
-3.7645 <s> 10.05 0.0000
-4.0656 <s> 10.09 0.0000
-4.0656 <s> 10.2 0.0000
-3.5885 <s> 10.9 0.0000
-4.0656 <s> 100 0.0000
-4.0656 <s> 12 0.0000
-3.5885 <s> 15 0.0000
-3.7645 <s> 2 0.0000
-4.0656 <s> 2.02 0.0000
-3.7645 <s> 2.05 0.0000
-3.3666 <s> 2.1 0.0000
-4.0656 <s> 2.15 0.0000
-4.0656 <s> 2.54 0.0000
-4.0656 <s> 2.7 0.0000
-4.0656 <s> 20 0.0000
-4.0656 <s> 20.3 0.0000
-3.4635 <s> 200 0.0000
-4.0656 <s> 21 0.0000
-4.0656 <s> 21.8 0.0000
-3.7645 <s> 22 0.0000
-4.0656 <s> 22.5 0.0000
-4.0656 <s> 225 0.0000
-4.0656 <s> 23 0.0000
-4.0656 <s> 25 0.0000
-3.7645 <s> 250 0.0000
-4.0656 <s> 27 0.0000
-3.2874 <s> 3D 0.0000
-4.0656 <s> 41 0.0000
-4.0656 <s> 5,000 0.0000
-4.0656 <s> 50 0.0000
-4.0656 <s> 6B 0.0000
-4.0656 <s> 75 0.0000
-4.0656 <s> 796 0.0000
-4.0656 <s> 8A 0.0000
-3.7645 <s> 90 0.0000
-4.0656 <s> 9C 0.0000
-2.1211 <s> A 0.0000
-3.0242 <s> ABOUT 0.0000
-3.7645 <s> ABOVE 0.0000
-4.0656 <s> ACCURATE 0.0000
-2.5471 <s> ADD 0.0000
-3.3666 <s> ADDED 0.0000
-3.1113 <s> ADDING 0.0000
-4.0656 <s> ADDITIONAL 0.0000
-4.0656 <s> ADJUSTMENTS 0.0000
-4.0656 <s> AFFECTING 0.0000
-3.7645 <s> AFTER 0.0000
-2.9195 <s> AGAIN 0.0000
-4.0656 <s> AGE 0.0000
-3.7645 <s> AGED 0.0000
-2.9516 <s> ALL 0.0000
-4.0656 <s> ALLOW 0.0000
-3.2205 <s> ALSO 0.0000
-3.2205 <s> ALT 0.0000
-3.0656 <s> AN 0.0000
-1.8725 <s> AND 0.0000
-3.7645 <s> ANGLED 0.0000
-2.7645 <s> ANIMATION 0.0000
-3.5885 <s> ANOTHER 0.0000
-4.0656 <s> ANSWER 0.0000
-4.0656 <s> ANY 0.0000
-3.0656 <s> ARE 0.0000
-4.0656 <s> AREA 0.0000
-3.5885 <s> AREAS 0.0000
-3.1625 <s> AROUND 0.0000
-3.7645 <s> AS 0.0000
-4.0656 <s> ASSIGN 0.0000
-4.0656 <s> ASSUMING 0.0000
-2.8351 <s> AT 0.0000
-4.0656 <s> AUXILIARY 0.0000
-4.0656 <s> AWARE 0.0000
-4.0656 <s> AWAY 0.0000
-3.3666 <s> AXIS 0.0000
-3.1113 <s> BACK 0.0000
-4.0656 <s> BACKGROUND 0.0000
-4.0656 <s> BACKSPACE 0.0000
-3.7645 <s> BAKE 0.0000
-4.0656 <s> BAKED 0.0000
-3.4635 <s> BAKING 0.0000
-4.0656 <s> BALANCED 0.0000
-4.0656 <s> BALANCES 0.0000
-4.0656 <s> BAR 0.0000
-2.5093 <s> BE 0.0000
-3.7645 <s> BE4 0.0000
-3.7645 <s> BECAUSE 0.0000
-4.0656 <s> BECOME 0.0000
-3.7645 <s> BEFORE 0.0000
-3.7645 <s> BEGINNING 0.0000
-3.7645 <s> BEING 0.0000
-4.0656 <s> BELOW 0.0000
-3.2874 <s> BETTER 0.0000
-3.5885 <s> BETWEEN 0.0000
-3.7645 <s> BEVEL 0.0000
-4.0656 <s> BEVELED 0.0000
-4.0656 <s> BEYOND 0.0000
-4.0656 <s> BIG-TIME 0.0000
-4.0656 <s> BIT 0.0000
-3.7645 <s> BLACK 0.0000
-3.5885 <s> BLEND 0.0000
-4.0656 <s> BLENDED 0.0000
-3.3666 <s> BLENDER 0.0000
-3.7645 <s> BORDER 0.0000
-3.0656 <s> BOTTOM 0.0000
-4.0656 <s> BOUNCE 0.0000
-4.0656 <s> BOUNCES 0.0000
-4.0656 <s> BOUNCING 0.0000
-3.5885 <s> BOX 0.0000
-4.0656 <s> BRIGHT 0.0000
-3.7645 <s> BRING 0.0000
-3.2874 <s> BUT 0.0000
-2.3496 <s> BUTTON 0.0000
-2.4028 <s> BY 0.0000
-3.7645 <s> CAB 0.0000
-3.0656 <s> CAMERA 0.0000
-2.4528 <s> CAN 0.0000
-4.0656 <s> CAPABILITIES 0.0000
-3.7645 <s> CASE 0.0000
-4.0656 <s> CAUSE 0.0000
-3.0656 <s> CENTER 0.0000
-3.2205 <s> CENTERED 0.0000
-4.0656 <s> CENTRE 0.0000
-3.2874 <s> CHANGE 0.0000
-3.4635 <s> CHANGES 0.0000
-3.2205 <s> CHANNEL 0.0000
-3.2874 <s> CHANNELS 0.0000
-4.0656 <s> CHECKER 0.0000
-4.0656 <s> CHECKMARK 0.0000
-4.0656 <s> CHOOSE 0.0000
-4.0656 <s> CLAMP 0.0000
-2.0879 <s> CLICK 0.0000
-4.0656 <s> CLICKING 0.0000
-4.0656 <s> CLOSE 0.0000
-2.7434 <s> COLOR 0.0000
-3.7645 <s> COME 0.0000
-3.7645 <s> COMING 0.0000
-4.0656 <s> COMMENT 0.0000
-4.0656 <s> COMPOSITING 0.0000
-3.5885 <s> COMPUTER 0.0000
-4.0656 <s> CONCLUDES 0.0000
-3.2874 <s> CONCRETE 0.0000
-3.3666 <s> CONNECT 0.0000
-4.0656 <s> CONNECTED 0.0000
-4.0656 <s> CONNECTING 0.0000
-3.5885 <s> CONNECTION 0.0000
-4.0656 <s> CONTRAST 0.0000
-3.2205 <s> CONTROL 0.0000
-3.7645 <s> CONTROLLED 0.0000
-4.0656 <s> CONVERT 0.0000
-3.1113 <s> COPPER 0.0000
-3.1625 <s> COPY 0.0000
-4.0656 <s> CORNERS 0.0000
-4.0656 <s> CORRECT 0.0000
-4.0656 <s> COST 0.0000
-4.0656 <s> COUPLE 0.0000
-4.0656 <s> CREATING 0.0000
-3.2205 <s> CTRL 0.0000
-3.0656 <s> CUBE 0.0000
-4.0656 <s> CUBED 0.0000
-4.0656 <s> CURRENT 0.0000
-3.7645 <s> CURRENTLY 0.0000
-3.7645 <s> CURSOR 0.0000
-4.0656 <s> CURVE 0.0000
-3.2874 <s> CUT 0.0000
-4.0656 <s> CUTS 0.0000
-4.0656 <s> CYCLE 0.0000
-3.7645 <s> D 0.0000
-4.0656 <s> DAMN 0.0000
-4.0656 <s> DARKEN 0.0000
-3.5885 <s> DATA 0.0000
-3.7645 <s> DAY 0.0000
-4.0656 <s> DECIDE 0.0000
-3.3666 <s> DEFAULT 0.0000
-3.7645 <s> DEFINE 0.0000
-3.3666 <s> DELETE 0.0000
-4.0656 <s> DEMONSTRATING 0.0000
-3.4635 <s> DEPTH 0.0000
-4.0656 <s> DESCRIPTION 0.0000
-4.0656 <s> DETAIL 0.0000
-3.7645 <s> DID 0.0000
-3.5885 <s> DIFFERENT 0.0000
-3.3666 <s> DIFFUSE 0.0000
-4.0656 <s> DIRECTION 0.0000
-3.7645 <s> DIRECTIONS 0.0000
-4.0656 <s> DIRECTORIES 0.0000
-3.4635 <s> DIRECTORY 0.0000
-3.4635 <s> DIRTY 0.0000
-4.0656 <s> DISPLACEMENT 0.0000
-4.0656 <s> DISPLAY 0.0000
-4.0656 <s> DISTANCE 0.0000
-4.0656 <s> DIVISION 0.0000
-3.5885 <s> DIVISIONS 0.0000
-3.0656 <s> DO 0.0000
-3.7645 <s> DOES 0.0000
-4.0656 <s> DOESN'T 0.0000
-3.3666 <s> DOMAIN 0.0000
-3.7645 <s> DON'T 0.0000
-3.2874 <s> DONE 0.0000
-4.0656 <s> DOTS 0.0000
-2.7868 <s> DOWN 0.0000
-4.0656 <s> DOWNLOADING 0.0000
-2.8615 <s> DRAG 0.0000
-4.0656 <s> DRAGGED 0.0000
-3.5885 <s> DROP 0.0000
-3.4635 <s> DROP-DOWN 0.0000
-4.0656 <s> DUPLICATED 0.0000
-3.7645 <s> DURING 0.0000
-2.9516 <s> E 0.0000
-3.7645 <s> EACH 0.0000
-3.5885 <s> EARLIER 0.0000
-4.0656 <s> EASIER 0.0000
-2.6184 <s> EDGE 0.0000
-2.9516 <s> EDGES 0.0000
-3.0242 <s> EDIT 0.0000
-3.1113 <s> EDITOR 0.0000
-4.0656 <s> EDITORS 0.0000
-3.7645 <s> EFFECT 0.0000
-3.4635 <s> EIGHT 0.0000
-4.0656 <s> EIGHT-SECOND 0.0000
-3.7645 <s> ELBOW 0.0000
-2.9864 <s> END 0.0000
-2.6342 <s> ENTER 0.0000
-4.0656 <s> ENTRY 0.0000
-4.0656 <s> EQUIVALENT 0.0000
-4.0656 <s> ESCAPE 0.0000
-4.0656 <s> EVEN 0.0000
-4.0656 <s> EXAMPLE 0.0000
-3.7645 <s> EXPAND 0.0000
-4.0656 <s> EXPLORER 0.0000
-4.0656 <s> EXTENDING 0.0000
-3.7645 <s> EXTENDS 0.0000
-2.8351 <s> EXTRUDE 0.0000
-3.5885 <s> F 0.0000
-3.5885 <s> F10 0.0000
-4.0656 <s> F11 0.0000
-3.5885 <s> FACE 0.0000
-3.2205 <s> FACES 0.0000
-4.0656 <s> FACING 0.0000
-3.7645 <s> FACTOR 0.0000
-4.0656 <s> FALL 0.0000
-3.4635 <s> FAR 0.0000
-4.0656 <s> FAST 0.0000
-4.0656 <s> FEAR 0.0000
-3.7645 <s> FEW 0.0000
-3.5885 <s> FF 0.0000
-3.2874 <s> FILE 0.0000
-4.0656 <s> FILM 0.0000
-3.4635 <s> FINAL 0.0000
-4.0656 <s> FIND 0.0000
-4.0656 <s> FINE 0.0000
-4.0656 <s> FINISH 0.0000
-4.0656 <s> FINISHED 0.0000
-4.0656 <s> FIREFLIES 0.0000
-3.2874 <s> FIRST 0.0000
-3.7645 <s> FITTING 0.0000
-3.5885 <s> FIVE 0.0000
-3.7645 <s> FIX 0.0000
-4.0656 <s> FLOAT 0.0000
-2.8895 <s> FLOOR 0.0000
-3.7645 <s> FLOW 0.0000
-2.6184 <s> FLUID 0.0000
-4.0656 <s> FOOT 0.0000
-2.3174 <s> FOR 0.0000
-3.7645 <s> FORMAT 0.0000
-4.0656 <s> FORMATS 0.0000
-4.0656 <s> FORMS 0.0000
-4.0656 <s> FORWARD 0.0000
-4.0656 <s> FOUR 0.0000
-3.2874 <s> FRAME 0.0000
-4.0656 <s> FRAMES 0.0000
-2.8895 <s> FROM 0.0000
-2.9864 <s> FRONT 0.0000
-4.0656 <s> FULLEST 0.0000
-3.3666 <s> G 0.0000
-3.5885 <s> GAMMA 0.0000
-3.5885 <s> GEOMETRY 0.0000
-3.5885 <s> GET 0.0000
-4.0656 <s> GLASS 0.0000
-3.0242 <s> GLOSSY 0.0000
-4.0656 <s> GO 0.0000
-3.7645 <s> GOES 0.0000
-2.4423 <s> GOING 0.0000
-3.4635 <s> GOOD 0.0000
-4.0656 <s> GRADE 0.0000
-3.7645 <s> GRAPH 0.0000
-4.0656 <s> GRASS 0.0000
-4.0656 <s> GRAY 0.0000
-3.5885 <s> GRID 0.0000
-4.0656 <s> HAD 0.0000
-4.0656 <s> HALF 0.0000
-3.1625 <s> HAVE 0.0000
-3.7645 <s> HELP 0.0000
-3.2205 <s> HERE 0.0000
-3.5885 <s> HEX 0.0000
-4.0656 <s> HIGHER 0.0000
-3.2874 <s> HOLD 0.0000
-4.0656 <s> HOLDING 0.0000
-4.0656 <s> HOLDS 0.0000
-4.0656 <s> HORA 0.0000
-3.3666 <s> HOW 0.0000
-4.0656 <s> HUMAN 0.0000
-3.1113 <s> I 0.0000
-4.0656 <s> I'D 0.0000
-3.0656 <s> I'LL 0.0000
-2.7645 <s> I'M 0.0000
-4.0656 <s> I'VE 0.0000
-3.7645 <s> IDEA 0.0000
-3.0242 <s> IF 0.0000
-2.7434 <s> IMAGE 0.0000
-2.3413 <s> IN 0.0000
-3.7645 <s> INCREASES 0.0000
-4.0656 <s> INCREASING 0.0000
-4.0656 <s> INDIRECT 0.0000
-4.0656 <s> INDIVIDUAL 0.0000
-3.7645 <s> INFLOW 0.0000
-3.2205 <s> INPUT 0.0000
-3.5885 <s> INSIDE 0.0000
-4.0656 <s> INTERACT 0.0000
-4.0656 <s> INTERFERE 0.0000
-3.7645 <s> INTERVIEW 0.0000
-3.0656 <s> INTO 0.0000
-2.3580 <s> IS 0.0000
-2.0925 <s> IT 0.0000
-2.8351 <s> IT'S 0.0000
-3.4635 <s> ITS 0.0000
-4.0656 <s> ITSELF 0.0000
-4.0656 <s> JUST 0.0000
-3.4635 <s> KEEP 0.0000
-3.1113 <s> KEY 0.0000
-4.0656 <s> KEYFRAME 0.0000
-4.0656 <s> L 0.0000
-3.7645 <s> LAMP 0.0000
-4.0656 <s> LARGEST 0.0000
-3.7645 <s> LAST 0.0000
-3.5885 <s> LATER 0.0000
-4.0656 <s> LAYER 0.0000
-3.4635 <s> LAYOUT 0.0000
-3.5885 <s> LEAVE 0.0000
-2.6676 <s> LEFT 0.0000
-4.0656 <s> LEFT-CLICK 0.0000
-3.5885 <s> LENGTH 0.0000
-2.8615 <s> LET'S 0.0000
-3.7645 <s> LIGHT 0.0000
-2.9516 <s> LIKE 0.0000
-4.0656 <s> LIMITS 0.0000
-4.0656 <s> LINES 0.0000
-4.0656 <s> LINK 0.0000
-3.2874 <s> LITTLE 0.0000
-4.0656 <s> LOCATED 0.0000
-3.0242 <s> LOCATION 0.0000
-3.7645 <s> LOCK 0.0000
-3.7645 <s> LONG 0.0000
-3.7645 <s> LONGER 0.0000
-2.9864 <s> LOOK 0.0000
-3.4635 <s> LOOKING 0.0000
-3.1625 <s> LOOKS 0.0000
-3.2874 <s> LOOP 0.0000
-4.0656 <s> LOU 0.0000
-4.0656 <s> MAIN 0.0000
-4.0656 <s> MAJOR 0.0000
-2.7434 <s> MAKE 0.0000
-3.4635 <s> MAKING 0.0000
-2.5742 <s> MATERIAL 0.0000
-3.7645 <s> MATERIALS 0.0000
-4.0656 <s> MAXIMUM 0.0000
-3.7645 <s> MAY 0.0000
-3.7645 <s> MEG 0.0000
-3.3666 <s> MEMORY 0.0000
-3.1113 <s> MENU 0.0000
-3.4635 <s> MESH 0.0000
-4.0656 <s> MESS 0.0000
-4.0656 <s> MET 0.0000
-4.0656 <s> META 0.0000
-4.0656 <s> MIDDLE 0.0000
-4.0656 <s> MINOR 0.0000
-4.0656 <s> MINUS 0.0000
-3.5885 <s> MINUTES 0.0000
-3.2874 <s> MIX 0.0000
-4.0656 <s> MIXED 0.0000
-2.7645 <s> MODE 0.0000
-3.5885 <s> MODELING 0.0000
-3.0656 <s> MODIFIER 0.0000
-3.3666 <s> MODIFIERS 0.0000
-4.0656 <s> MODIFY 0.0000
-3.7645 <s> MODIFYING 0.0000
-3.0656 <s> MORE 0.0000
-4.0656 <s> MOTION 0.0000
-3.0242 <s> MOUSE 0.0000
-2.9195 <s> MOVE 0.0000
-4.0656 <s> MOVEMENT 0.0000
-3.5885 <s> MOVIE 0.0000
-3.2874 <s> MOVING 0.0000
-4.0656 <s> MULTIPLE 0.0000
-3.7645 <s> MY 0.0000
-3.4635 <s> NAME 0.0000
-4.0656 <s> NAMED 0.0000
-3.7645 <s> NAVIGATE 0.0000
-3.1113 <s> NEAR 0.0000
-2.9864 <s> NEED 0.0000
-2.9864 <s> NEW 0.0000
-2.5093 <s> NEXT 0.0000
-4.0656 <s> NINE 0.0000
-3.7645 <s> NO 0.0000
-3.2874 <s> NODE 0.0000
-3.5885 <s> NODES 0.0000
-3.2874 <s> NOISE 0.0000
-4.0656 <s> NONE 0.0000
-3.2874 <s> NOT 0.0000
-4.0656 <s> NOTHING 0.0000
-3.5885 <s> NOTICE 0.0000
-2.0971 <s> NOW 0.0000
-2.7434 <s> NUMBER 0.0000
-4.0656 <s> NZ 0.0000
-2.8895 <s> OBJECT 0.0000
-3.7645 <s> OBJECTS 0.0000
-3.5885 <s> OBSTACLE 0.0000
-2.1362 <s> OF 0.0000
-3.5885 <s> OFF 0.0000
-3.2874 <s> OFFSET 0.0000
-4.0656 <s> OK 0.0000
-4.0656 <s> OLDER 0.0000
-2.2460 <s> ON 0.0000
-3.2205 <s> ONCE 0.0000
-3.2874 <s> ONE 0.0000
-4.0656 <s> ONE-QUARTER 0.0000
-3.5885 <s> ONLY 0.0000
-3.2205 <s> OPEN 0.0000
-3.5885 <s> OPENING 0.0000
-3.5885 <s> OPTIONS 0.0000
-3.0656 <s> OR 0.0000
-3.3666 <s> ORIGIN 0.0000
-4.0656 <s> ORIGINAL 0.0000
-4.0656 <s> ORTHOGRAPHIC 0.0000
-3.4635 <s> OTHER 0.0000
-2.9516 <s> OUR 0.0000
-3.0656 <s> OUT 0.0000
-3.3666 <s> OUTPUT 0.0000
-3.4635 <s> OUTSIDE 0.0000
-2.9516 <s> OVER 0.0000
-4.0656 <s> OVERLAID 0.0000
-4.0656 <s> OWN 0.0000
-2.7868 <s> PAD 0.0000
-2.6676 <s> PAN 0.0000
-3.2874 <s> PANEL 0.0000
-3.7645 <s> PART 0.0000
-4.0656 <s> PAST 0.0000
-3.5885 <s> PAUSE 0.0000
-4.0656 <s> PERFECT 0.0000
-3.7645 <s> PERSPECTIVE 0.0000
-3.5885 <s> PHYSICS 0.0000
-2.6184 <s> PIPE 0.0000
-4.0656 <s> PIPER 0.0000
-3.7645 <s> PIPES 0.0000
-3.7645 <s> PLACE 0.0000
-4.0656 <s> PLANE 0.0000
-4.0656 <s> PLATE 0.0000
-3.2205 <s> PLAY 0.0000
-3.7645 <s> PLAYER 0.0000
-4.0656 <s> PLAYING 0.0000
-4.0656 <s> PLEASE 0.0000
-3.7645 <s> PLUS 0.0000
-2.9864 <s> POINT 0.0000
-4.0656 <s> POINT2 0.0000
-2.8103 <s> POSITION 0.0000
-2.1162 <s> PRESS 0.0000
-2.5742 <s> PRESSING 0.0000
-3.3666 <s> PREVENT 0.0000
-4.0656 <s> PREVIOUS 0.0000
-4.0656 <s> PROBLEMS 0.0000
-3.5885 <s> PROCESS 0.0000
-4.0656 <s> PRODUCES 0.0000
-3.7645 <s> PROGRESS 0.0000
-3.1625 <s> PROJECT 0.0000
-3.7645 <s> PROJECTS 0.0000
-3.4635 <s> PROPERTIES 0.0000
-3.4635 <s> PUT 0.0000
-4.0656 <s> QUICKER 0.0000
-4.0656 <s> QUITE 0.0000
-3.2874 <s> R 0.0000
-3.7645 <s> RADIUS 0.0000
-3.5885 <s> READY 0.0000
-3.7645 <s> REDUCE 0.0000
-4.0656 <s> REFERRED 0.0000
-4.0656 <s> REFLECTIONS 0.0000
-4.0656 <s> RELOAD 0.0000
-2.9195 <s> RENDER 0.0000
-3.3666 <s> RENDERED 0.0000
-3.4635 <s> RENDERING 0.0000
-4.0656 <s> RENTED 0.0000
-3.7645 <s> REPEAT 0.0000
-4.0656 <s> REPLACE 0.0000
-4.0656 <s> REQUIRE 0.0000
-3.4635 <s> REQUIRED 0.0000
-4.0656 <s> RESIZE 0.0000
-3.5885 <s> RESOLUTION 0.0000
-4.0656 <s> RESTING 0.0000
-4.0656 <s> RESTLESS 0.0000
-3.5885 <s> RESULT 0.0000
-3.2205 <s> RETURN 0.0000
-2.6506 <s> RIGHT 0.0000
-2.8615 <s> RIGHT-CLICK 0.0000
-4.0656 <s> RIGHT-CLICKING 0.0000
-4.0656 <s> RIM 0.0000
-4.0656 <s> ROOM 0.0000
-3.4635 <s> ROTATE 0.0000
-4.0656 <s> ROTATED 0.0000
-3.1113 <s> ROTATION 0.0000
-3.5885 <s> ROUGHNESS 0.0000
-3.7645 <s> ROUND 0.0000
-4.0656 <s> ROUNDED 0.0000
-4.0656 <s> RUN 0.0000
-3.0242 <s> S 0.0000
-3.4635 <s> SAME 0.0000
-4.0656 <s> SAMPLE 0.0000
-4.0656 <s> SAMPLES 0.0000
-3.2874 <s> SAVE 0.0000
-3.7645 <s> SAVED 0.0000
-2.7868 <s> SCALE 0.0000
-4.0656 <s> SCALED 0.0000
-3.7645 <s> SCENE 0.0000
-3.4635 <s> SCREEN 0.0000
-3.7645 <s> SCREWED 0.0000
-3.5885 <s> SCRUB 0.0000
-3.7645 <s> SECOND 0.0000
-3.4635 <s> SECONDS 0.0000
-3.5885 <s> SECTION 0.0000
-2.7232 <s> SEE 0.0000
-4.0656 <s> SEEMS 0.0000
-3.7645 <s> SEEN 0.0000
-2.2331 <s> SELECT 0.0000
-2.8103 <s> SELECTED 0.0000
-3.7645 <s> SELECTION 0.0000
-4.0656 <s> SEND 0.0000
-3.7645 <s> SEPARATE 0.0000
-2.3174 <s> SET 0.0000
-3.5885 <s> SETTING 0.0000
-4.0656 <s> SETTINGS 0.0000
-3.4635 <s> SEVEN 0.0000
-2.8615 <s> SHADER 0.0000
-3.7645 <s> SHADERS 0.0000
-4.0656 <s> SHAPE 0.0000
-4.0656 <s> SHARPEN 0.0000
-4.0656 <s> SHE 0.0000
-2.8351 <s> SHIFT 0.0000
-3.2205 <s> SHOULD 0.0000
-4.0656 <s> SHOULDN'T 0.0000
-4.0656 <s> SHOW 0.0000
-4.0656 <s> SHOWING 0.0000
-4.0656 <s> SHOWN 0.0000
-4.0656 <s> SHOWS 0.0000
-4.0656 <s> SHUT 0.0000
-3.1113 <s> SIDE 0.0000
-3.0656 <s> SIMULATION 0.0000
-3.7645 <s> SINCE 0.0000
-4.0656 <s> SIT 0.0000
-3.5885 <s> SIX 0.0000
-2.8351 <s> SIZE 0.0000
-3.3666 <s> SLIDE 0.0000
-3.7645 <s> SLOW 0.0000
-4.0656 <s> SMALL 0.0000
-3.2205 <s> SMOOTH 0.0000
-2.0833 <s> SO 0.0000
-2.9195 <s> SOLDER 0.0000
-3.2205 <s> SOLID 0.0000
-3.0656 <s> SOME 0.0000
-4.0656 <s> SOMEBODY 0.0000
-3.5885 <s> SOMETHING 0.0000
-3.5885 <s> SOMETIMES 0.0000
-3.5885 <s> SOURCE 0.0000
-4.0656 <s> SPECIFIED 0.0000
-4.0656 <s> SPECKLES 0.0000
-4.0656 <s> SPEED 0.0000
-3.5885 <s> SPHERE 0.0000
-3.7645 <s> SPLIT 0.0000
-4.0656 <s> SPOTS 0.0000
-3.1625 <s> START 0.0000
-4.0656 <s> STARTED 0.0000
-4.0656 <s> STARTUP 0.0000
-3.7645 <s> STILL 0.0000
-3.7645 <s> STOP 0.0000
-3.3666 <s> STRAIGHT 0.0000
-4.0656 <s> STREAM 0.0000
-3.3666 <s> STRENGTH 0.0000
-4.0656 <s> STRETCH 0.0000
-4.0656 <s> SUB-DIRECTORY 0.0000
-3.4635 <s> SUBDIVISION 0.0000
-4.0656 <s> SUBSCRIBE 0.0000
-3.3666 <s> SURE 0.0000
-4.0656 <s> SURF 0.0000
-2.9516 <s> SURFACE 0.0000
-4.0656 <s> SURRENDER 0.0000
-4.0656 <s> SURRENDERED 0.0000
-2.6676 <s> SWITCH 0.0000
-3.7645 <s> SYNC 0.0000
-2.8103 <s> TAB 0.0000
-3.7645 <s> TAKE 0.0000
-4.0656 <s> TAN 0.0000
-2.6342 <s> TEXT 0.0000
-4.0656 <s> TEXTS 0.0000
-3.2874 <s> TEXTURE 0.0000
-3.1113 <s> THAN 0.0000
-4.0656 <s> THANKS 0.0000
-2.2143 <s> THAT 0.0000
-3.7645 <s> THAT'S 0.0000
-1.2889 <s> THE 0.0000
-3.7645 <s> THEM 0.0000
-1.7602 <s> THEN 0.0000
-4.0656 <s> THEN- 0.0000
-3.5885 <s> THERE 0.0000
-3.2874 <s> THESE 0.0000
-3.7645 <s> THICKNESS 0.0000
-4.0656 <s> THINGS 0.0000
-2.1465 <s> THIS 0.0000
-4.0656 <s> THOUGHT 0.0000
-3.0656 <s> THREE 0.0000
-3.3666 <s> THROUGH 0.0000
-4.0656 <s> THU 0.0000
-3.3666 <s> TIME 0.0000
-3.5885 <s> TIMELINE 0.0000
-1.6138 <s> TO 0.0000
-4.0656 <s> TOGETHER 0.0000
-3.5885 <s> TOO 0.0000
-3.7645 <s> TOOK 0.0000
-4.0656 <s> TOOLS 0.0000
-2.7868 <s> TOP 0.0000
-3.3666 <s> TORUS 0.0000
-4.0656 <s> TOURISTS 0.0000
-4.0656 <s> TOWARD 0.0000
-4.0656 <s> TRIANGLE 0.0000
-4.0656 <s> TUNE 0.0000
-4.0656 <s> TURN 0.0000
-3.2874 <s> TWICE 0.0000
-3.1625 <s> TWO 0.0000
-3.1113 <s> TYPE 0.0000
-3.7645 <s> UNDER 0.0000
-2.8103 <s> UNTIL 0.0000
-4.0656 <s> UNWANTED 0.0000
-3.2874 <s> UNWRAP 0.0000
-3.7645 <s> UNWRAPPED 0.0000
-2.5604 <s> UP 0.0000
-4.0656 <s> US 0.0000
-2.8103 <s> USE 0.0000
-3.4635 <s> USED 0.0000
-3.4635 <s> USING 0.0000
-3.7645 <s> UV 0.0000
-3.7645 <s> UV/IMAGE 0.0000
-2.7039 <s> VALUE 0.0000
-3.2205 <s> VALUES 0.0000
-4.0656 <s> VARY 0.0000
-4.0656 <s> VELOCITY 0.0000
-3.2874 <s> VERIFY 0.0000
-3.7645 <s> VERSION 0.0000
-3.5885 <s> VERTEX 0.0000
-2.6854 <s> VERTICES 0.0000
-4.0656 <s> VERY 0.0000
-3.1113 <s> VIDEO 0.0000
-2.3174 <s> VIEW 0.0000
-4.0656 <s> VIEWPORT 0.0000
-4.0656 <s> VISIBLE 0.0000
-4.0656 <s> WAIT 0.0000
-3.4635 <s> WANT 0.0000
-4.0656 <s> WAS 0.0000
-4.0656 <s> WATCH 0.0000
-4.0656 <s> WATCHING 0.0000
-2.8895 <s> WATER 0.0000
-3.5885 <s> WAY 0.0000
-2.5093 <s> WE 0.0000
-2.7434 <s> WE'LL 0.0000
-2.7039 <s> WE'RE 0.0000
-4.0656 <s> WEDGES 0.0000
-3.5885 <s> WELL 0.0000
-2.9864 <s> WHAT 0.0000
-3.2205 <s> WHEN 0.0000
-3.2205 <s> WHERE 0.0000
-3.4635 <s> WHICH 0.0000
-3.3666 <s> WHILE 0.0000
-3.4635 <s> WHITE 0.0000
-3.7645 <s> WHOLE 0.0000
-4.0656 <s> WHY 0.0000
-4.0656 <s> WIFE 0.0000
-2.3843 <s> WILL 0.0000
-3.0656 <s> WINDOW 0.0000
-4.0656 <s> WINDOWS 0.0000
-3.5885 <s> WIREFRAME 0.0000
-2.8895 <s> WITH 0.0000
-3.2874 <s> WITHOUT 0.0000
-4.0656 <s> WON'T 0.0000
-4.0656 <s> WORD 0.0000
-3.5885 <s> WORK 0.0000
-4.0656 <s> WORLD 0.0000
-3.7645 <s> WRONG 0.0000
-2.8351 <s> X 0.0000
-3.0656 <s> X-AXIS 0.0000
-4.0656 <s> Y 0.0000
-2.4635 <s> YOU 0.0000
-3.4635 <s> YOU'LL 0.0000
-3.7645 <s> YOU'RE 0.0000
-3.2205 <s> YOUR 0.0000
-4.0656 <s> YOUTH 0.0000
-3.0242 <s> Z 0.0000
-4.0656 <s> Z-AXIS 0.0000
-4.0656 <s> Z-DIRECTION 0.0000
-4.0656 <s> ZERO 0.0000
-3.1625 <s> ZOOM 0.0000
-0.3010 A </s> -0.3010
-0.3010 ABOUT </s> -0.3010
-0.3010 ABOVE </s> -0.3010
-0.3010 ACCURATE </s> -0.3010
-0.3010 ADD </s> -0.3010
-0.3010 ADDED </s> -0.3010
-0.3010 ADDING </s> -0.3010
-0.3010 ADDITIONAL </s> -0.3010
-0.3010 ADJUSTMENTS </s> -0.3010
-0.3010 AFFECTING </s> -0.3010
-0.3010 AFTER </s> -0.3010
-0.3010 AGAIN </s> -0.3010
-0.3010 AGE </s> -0.3010
-0.3010 AGED </s> -0.3010
-0.3010 ALL </s> -0.3010
-0.3010 ALLOW </s> -0.3010
-0.3010 ALSO </s> -0.3010
-0.3010 ALT </s> -0.3010
-0.3010 AN </s> -0.3010
-0.3010 AND </s> -0.3010
-0.3010 ANGLED </s> -0.3010
-0.3010 ANIMATION </s> -0.3010
-0.3010 ANOTHER </s> -0.3010
-0.3010 ANSWER </s> -0.3010
-0.3010 ANY </s> -0.3010
-0.3010 ARE </s> -0.3010
-0.3010 AREA </s> -0.3010
-0.3010 AREAS </s> -0.3010
-0.3010 AROUND </s> -0.3010
-0.3010 AS </s> -0.3010
-0.3010 ASSIGN </s> -0.3010
-0.3010 ASSUMING </s> -0.3010
-0.3010 AT </s> -0.3010
-0.3010 AUXILIARY </s> -0.3010
-0.3010 AWARE </s> -0.3010
-0.3010 AWAY </s> -0.3010
-0.3010 AXIS </s> -0.3010
-0.3010 BACK </s> -0.3010
-0.3010 BACKGROUND </s> -0.3010
-0.3010 BACKSPACE </s> -0.3010
-0.3010 BAKE </s> -0.3010
-0.3010 BAKED </s> -0.3010
-0.3010 BAKING </s> -0.3010
-0.3010 BALANCED </s> -0.3010
-0.3010 BALANCES </s> -0.3010
-0.3010 BAR </s> -0.3010
-0.3010 BE </s> -0.3010
-0.3010 BE4 </s> -0.3010
-0.3010 BECAUSE </s> -0.3010
-0.3010 BECOME </s> -0.3010
-0.3010 BEFORE </s> -0.3010
-0.3010 BEGINNING </s> -0.3010
-0.3010 BEING </s> -0.3010
-0.3010 BELOW </s> -0.3010
-0.3010 BETTER </s> -0.3010
-0.3010 BETWEEN </s> -0.3010
-0.3010 BEVEL </s> -0.3010
-0.3010 BEVELED </s> -0.3010
-0.3010 BEYOND </s> -0.3010
-0.3010 BIG-TIME </s> -0.3010
-0.3010 BIT </s> -0.3010
-0.3010 BLACK </s> -0.3010
-0.3010 BLEND </s> -0.3010
-0.3010 BLENDED </s> -0.3010
-0.3010 BLENDER </s> -0.3010
-0.3010 BORDER </s> -0.3010
-0.3010 BOTTOM </s> -0.3010
-0.3010 BOUNCE </s> -0.3010
-0.3010 BOUNCES </s> -0.3010
-0.3010 BOUNCING </s> -0.3010
-0.3010 BOX </s> -0.3010
-0.3010 BRIGHT </s> -0.3010
-0.3010 BRING </s> -0.3010
-0.3010 BUT </s> -0.3010
-0.3010 BUTTON </s> -0.3010
-0.3010 BY </s> -0.3010
-0.3010 CAB </s> -0.3010
-0.3010 CAMERA </s> -0.3010
-0.3010 CAN </s> -0.3010
-0.3010 CAPABILITIES </s> -0.3010
-0.3010 CASE </s> -0.3010
-0.3010 CAUSE </s> -0.3010
-0.3010 CENTER </s> -0.3010
-0.3010 CENTERED </s> -0.3010
-0.3010 CENTRE </s> -0.3010
-0.3010 CHANGE </s> -0.3010
-0.3010 CHANGES </s> -0.3010
-0.3010 CHANNEL </s> -0.3010
-0.3010 CHANNELS </s> -0.3010
-0.3010 CHECKER </s> -0.3010
-0.3010 CHECKMARK </s> -0.3010
-0.3010 CHOOSE </s> -0.3010
-0.3010 CLAMP </s> -0.3010
-0.3010 CLICK </s> -0.3010
-0.3010 CLICKING </s> -0.3010
-0.3010 CLOSE </s> -0.3010
-0.3010 COLOR </s> -0.3010
-0.3010 COME </s> -0.3010
-0.3010 COMING </s> -0.3010
-0.3010 COMMENT </s> -0.3010
-0.3010 COMPOSITING </s> -0.3010
-0.3010 COMPUTER </s> -0.3010
-0.3010 CONCLUDES </s> -0.3010
-0.3010 CONCRETE </s> -0.3010
-0.3010 CONNECT </s> -0.3010
-0.3010 CONNECTED </s> -0.3010
-0.3010 CONNECTING </s> -0.3010
-0.3010 CONNECTION </s> -0.3010
-0.3010 CONTRAST </s> -0.3010
-0.3010 CONTROL </s> -0.3010
-0.3010 CONTROLLED </s> -0.3010
-0.3010 CONVERT </s> -0.3010
-0.3010 COPPER </s> -0.3010
-0.3010 COPY </s> -0.3010
-0.3010 CORNERS </s> -0.3010
-0.3010 CORRECT </s> -0.3010
-0.3010 COST </s> -0.3010
-0.3010 COUPLE </s> -0.3010
-0.3010 CREATING </s> -0.3010
-0.3010 CTRL </s> -0.3010
-0.3010 CUBE </s> -0.3010
-0.3010 CUBED </s> -0.3010
-0.3010 CURRENT </s> -0.3010
-0.3010 CURRENTLY </s> -0.3010
-0.3010 CURSOR </s> -0.3010
-0.3010 CURVE </s> -0.3010
-0.3010 CUT </s> -0.3010
-0.3010 CUTS </s> -0.3010
-0.3010 CYCLE </s> -0.3010
-0.3010 D </s> -0.3010
-0.3010 DAMN </s> -0.3010
-0.3010 DARKEN </s> -0.3010
-0.3010 DATA </s> -0.3010
-0.3010 DAY </s> -0.3010
-0.3010 DECIDE </s> -0.3010
-0.3010 DEFAULT </s> -0.3010
-0.3010 DEFINE </s> -0.3010
-0.3010 DELETE </s> -0.3010
-0.3010 DEMONSTRATING </s> -0.3010
-0.3010 DEPTH </s> -0.3010
-0.3010 DESCRIPTION </s> -0.3010
-0.3010 DETAIL </s> -0.3010
-0.3010 DID </s> -0.3010
-0.3010 DIFFERENT </s> -0.3010
-0.3010 DIFFUSE </s> -0.3010
-0.3010 DIRECTION </s> -0.3010
-0.3010 DIRECTIONS </s> -0.3010
-0.3010 DIRECTORIES </s> -0.3010
-0.3010 DIRECTORY </s> -0.3010
-0.3010 DIRTY </s> -0.3010
-0.3010 DISPLACEMENT </s> -0.3010
-0.3010 DISPLAY </s> -0.3010
-0.3010 DISTANCE </s> -0.3010
-0.3010 DIVISION </s> -0.3010
-0.3010 DIVISIONS </s> -0.3010
-0.3010 DO </s> -0.3010
-0.3010 DOES </s> -0.3010
-0.3010 DOESN'T </s> -0.3010
-0.3010 DOMAIN </s> -0.3010
-0.3010 DON'T </s> -0.3010
-0.3010 DONE </s> -0.3010
-0.3010 DOTS </s> -0.3010
-0.3010 DOWN </s> -0.3010
-0.3010 DOWNLOADING </s> -0.3010
-0.3010 DRAG </s> -0.3010
-0.3010 DRAGGED </s> -0.3010
-0.3010 DROP </s> -0.3010
-0.3010 DROP-DOWN </s> -0.3010
-0.3010 DUPLICATED </s> -0.3010
-0.3010 DURING </s> -0.3010
-0.3010 E </s> -0.3010
-0.3010 EACH </s> -0.3010
-0.3010 EARLIER </s> -0.3010
-0.3010 EASIER </s> -0.3010
-0.3010 EDGE </s> -0.3010
-0.3010 EDGES </s> -0.3010
-0.3010 EDIT </s> -0.3010
-0.3010 EDITOR </s> -0.3010
-0.3010 EDITORS </s> -0.3010
-0.3010 EFFECT </s> -0.3010
-0.3010 EIGHT </s> -0.3010
-0.3010 EIGHT-SECOND </s> -0.3010
-0.3010 ELBOW </s> -0.3010
-0.3010 END </s> -0.3010
-0.3010 ENTER </s> -0.3010
-0.3010 ENTRY </s> -0.3010
-0.3010 EQUIVALENT </s> -0.3010
-0.3010 ESCAPE </s> -0.3010
-0.3010 EVEN </s> -0.3010
-0.3010 EXAMPLE </s> -0.3010
-0.3010 EXPAND </s> -0.3010
-0.3010 EXPLORER </s> -0.3010
-0.3010 EXTENDING </s> -0.3010
-0.3010 EXTENDS </s> -0.3010
-0.3010 EXTRUDE </s> -0.3010
-0.3010 F </s> -0.3010
-0.3010 F10 </s> -0.3010
-0.3010 F11 </s> -0.3010
-0.3010 FACE </s> -0.3010
-0.3010 FACES </s> -0.3010
-0.3010 FACING </s> -0.3010
-0.3010 FACTOR </s> -0.3010
-0.3010 FALL </s> -0.3010
-0.3010 FAR </s> -0.3010
-0.3010 FAST </s> -0.3010
-0.3010 FEAR </s> -0.3010
-0.3010 FEW </s> -0.3010
-0.3010 FF </s> -0.3010
-0.3010 FILE </s> -0.3010
-0.3010 FILM </s> -0.3010
-0.3010 FINAL </s> -0.3010
-0.3010 FIND </s> -0.3010
-0.3010 FINE </s> -0.3010
-0.3010 FINISH </s> -0.3010
-0.3010 FINISHED </s> -0.3010
-0.3010 FIREFLIES </s> -0.3010
-0.3010 FIRST </s> -0.3010
-0.3010 FITTING </s> -0.3010
-0.3010 FIVE </s> -0.3010
-0.3010 FIX </s> -0.3010
-0.3010 FLOAT </s> -0.3010
-0.3010 FLOOR </s> -0.3010
-0.3010 FLOW </s> -0.3010
-0.3010 FLUID </s> -0.3010
-0.3010 FOOT </s> -0.3010
-0.3010 FOR </s> -0.3010
-0.3010 FORMAT </s> -0.3010
-0.3010 FORMATS </s> -0.3010
-0.3010 FORMS </s> -0.3010
-0.3010 FORWARD </s> -0.3010
-0.3010 FOUR </s> -0.3010
-0.3010 FRAME </s> -0.3010
-0.3010 FRAMES </s> -0.3010
-0.3010 FROM </s> -0.3010
-0.3010 FRONT </s> -0.3010
-0.3010 FULLEST </s> -0.3010
-0.3010 G </s> -0.3010
-0.3010 GAMMA </s> -0.3010
-0.3010 GEOMETRY </s> -0.3010
-0.3010 GET </s> -0.3010
-0.3010 GLASS </s> -0.3010
-0.3010 GLOSSY </s> -0.3010
-0.3010 GO </s> -0.3010
-0.3010 GOES </s> -0.3010
-0.3010 GOING </s> -0.3010
-0.3010 GOOD </s> -0.3010
-0.3010 GRADE </s> -0.3010
-0.3010 GRAPH </s> -0.3010
-0.3010 GRASS </s> -0.3010
-0.3010 GRAY </s> -0.3010
-0.3010 GRID </s> -0.3010
-0.3010 HAD </s> -0.3010
-0.3010 HALF </s> -0.3010
-0.3010 HAVE </s> -0.3010
-0.3010 HELP </s> -0.3010
-0.3010 HERE </s> -0.3010
-0.3010 HEX </s> -0.3010
-0.3010 HIGHER </s> -0.3010
-0.3010 HOLD </s> -0.3010
-0.3010 HOLDING </s> -0.3010
-0.3010 HOLDS </s> -0.3010
-0.3010 HORA </s> -0.3010
-0.3010 HOW </s> -0.3010
-0.3010 HUMAN </s> -0.3010
-0.3010 I </s> -0.3010
-0.3010 I'D </s> -0.3010
-0.3010 I'LL </s> -0.3010
-0.3010 I'M </s> -0.3010
-0.3010 I'VE </s> -0.3010
-0.3010 IDEA </s> -0.3010
-0.3010 IF </s> -0.3010
-0.3010 IMAGE </s> -0.3010
-0.3010 IN </s> -0.3010
-0.3010 INCREASES </s> -0.3010
-0.3010 INCREASING </s> -0.3010
-0.3010 INDIRECT </s> -0.3010
-0.3010 INDIVIDUAL </s> -0.3010
-0.3010 INFLOW </s> -0.3010
-0.3010 INPUT </s> -0.3010
-0.3010 INSIDE </s> -0.3010
-0.3010 INTERACT </s> -0.3010
-0.3010 INTERFERE </s> -0.3010
-0.3010 INTERVIEW </s> -0.3010
-0.3010 INTO </s> -0.3010
-0.3010 IS </s> -0.3010
-0.3010 IT </s> -0.3010
-0.3010 IT'S </s> -0.3010
-0.3010 ITS </s> -0.3010
-0.3010 ITSELF </s> -0.3010
-0.3010 JUST </s> -0.3010
-0.3010 KEEP </s> -0.3010
-0.3010 KEY </s> -0.3010
-0.3010 KEYFRAME </s> -0.3010
-0.3010 L </s> -0.3010
-0.3010 LAMP </s> -0.3010
-0.3010 LARGEST </s> -0.3010
-0.3010 LAST </s> -0.3010
-0.3010 LATER </s> -0.3010
-0.3010 LAYER </s> -0.3010
-0.3010 LAYOUT </s> -0.3010
-0.3010 LEAVE </s> -0.3010
-0.3010 LEFT </s> -0.3010
-0.3010 LEFT-CLICK </s> -0.3010
-0.3010 LENGTH </s> -0.3010
-0.3010 LET'S </s> -0.3010
-0.3010 LIGHT </s> -0.3010
-0.3010 LIKE </s> -0.3010
-0.3010 LIMITS </s> -0.3010
-0.3010 LINES </s> -0.3010
-0.3010 LINK </s> -0.3010
-0.3010 LITTLE </s> -0.3010
-0.3010 LOCATED </s> -0.3010
-0.3010 LOCATION </s> -0.3010
-0.3010 LOCK </s> -0.3010
-0.3010 LONG </s> -0.3010
-0.3010 LONGER </s> -0.3010
-0.3010 LOOK </s> -0.3010
-0.3010 LOOKING </s> -0.3010
-0.3010 LOOKS </s> -0.3010
-0.3010 LOOP </s> -0.3010
-0.3010 LOU </s> -0.3010
-0.3010 MAIN </s> -0.3010
-0.3010 MAJOR </s> -0.3010
-0.3010 MAKE </s> -0.3010
-0.3010 MAKING </s> -0.3010
-0.3010 MATERIAL </s> -0.3010
-0.3010 MATERIALS </s> -0.3010
-0.3010 MAXIMUM </s> -0.3010
-0.3010 MAY </s> -0.3010
-0.3010 MEG </s> -0.3010
-0.3010 MEMORY </s> -0.3010
-0.3010 MENU </s> -0.3010
-0.3010 MESH </s> -0.3010
-0.3010 MESS </s> -0.3010
-0.3010 MET </s> -0.3010
-0.3010 META </s> -0.3010
-0.3010 MIDDLE </s> -0.3010
-0.3010 MINOR </s> -0.3010
-0.3010 MINUS </s> -0.3010
-0.3010 MINUTES </s> -0.3010
-0.3010 MIX </s> -0.3010
-0.3010 MIXED </s> -0.3010
-0.3010 MODE </s> -0.3010
-0.3010 MODELING </s> -0.3010
-0.3010 MODIFIER </s> -0.3010
-0.3010 MODIFIERS </s> -0.3010
-0.3010 MODIFY </s> -0.3010
-0.3010 MODIFYING </s> -0.3010
-0.3010 MORE </s> -0.3010
-0.3010 MOTION </s> -0.3010
-0.3010 MOUSE </s> -0.3010
-0.3010 MOVE </s> -0.3010
-0.3010 MOVEMENT </s> -0.3010
-0.3010 MOVIE </s> -0.3010
-0.3010 MOVING </s> -0.3010
-0.3010 MULTIPLE </s> -0.3010
-0.3010 MY </s> -0.3010
-0.3010 NAME </s> -0.3010
-0.3010 NAMED </s> -0.3010
-0.3010 NAVIGATE </s> -0.3010
-0.3010 NEAR </s> -0.3010
-0.3010 NEED </s> -0.3010
-0.3010 NEW </s> -0.3010
-0.3010 NEXT </s> -0.3010
-0.3010 NINE </s> -0.3010
-0.3010 NO </s> -0.3010
-0.3010 NODE </s> -0.3010
-0.3010 NODES </s> -0.3010
-0.3010 NOISE </s> -0.3010
-0.3010 NONE </s> -0.3010
-0.3010 NOT </s> -0.3010
-0.3010 NOTHING </s> -0.3010
-0.3010 NOTICE </s> -0.3010
-0.3010 NOW </s> -0.3010
-0.3010 NUMBER </s> -0.3010
-0.3010 NZ </s> -0.3010
-0.3010 OBJECT </s> -0.3010
-0.3010 OBJECTS </s> -0.3010
-0.3010 OBSTACLE </s> -0.3010
-0.3010 OF </s> -0.3010
-0.3010 OFF </s> -0.3010
-0.3010 OFFSET </s> -0.3010
-0.3010 OK </s> -0.3010
-0.3010 OLDER </s> -0.3010
-0.3010 ON </s> -0.3010
-0.3010 ONCE </s> -0.3010
-0.3010 ONE </s> -0.3010
-0.3010 ONE-QUARTER </s> -0.3010
-0.3010 ONLY </s> -0.3010
-0.3010 OPEN </s> -0.3010
-0.3010 OPENING </s> -0.3010
-0.3010 OPTIONS </s> -0.3010
-0.3010 OR </s> -0.3010
-0.3010 ORIGIN </s> -0.3010
-0.3010 ORIGINAL </s> -0.3010
-0.3010 ORTHOGRAPHIC </s> -0.3010
-0.3010 OTHER </s> -0.3010
-0.3010 OUR </s> -0.3010
-0.3010 OUT </s> -0.3010
-0.3010 OUTPUT </s> -0.3010
-0.3010 OUTSIDE </s> -0.3010
-0.3010 OVER </s> -0.3010
-0.3010 OVERLAID </s> -0.3010
-0.3010 OWN </s> -0.3010
-0.3010 PAD </s> -0.3010
-0.3010 PAN </s> -0.3010
-0.3010 PANEL </s> -0.3010
-0.3010 PART </s> -0.3010
-0.3010 PAST </s> -0.3010
-0.3010 PAUSE </s> -0.3010
-0.3010 PERFECT </s> -0.3010
-0.3010 PERSPECTIVE </s> -0.3010
-0.3010 PHYSICS </s> -0.3010
-0.3010 PIPE </s> -0.3010
-0.3010 PIPER </s> -0.3010
-0.3010 PIPES </s> -0.3010
-0.3010 PLACE </s> -0.3010
-0.3010 PLANE </s> -0.3010
-0.3010 PLATE </s> -0.3010
-0.3010 PLAY </s> -0.3010
-0.3010 PLAYER </s> -0.3010
-0.3010 PLAYING </s> -0.3010
-0.3010 PLEASE </s> -0.3010
-0.3010 PLUS </s> -0.3010
-0.3010 POINT </s> -0.3010
-0.3010 POINT2 </s> -0.3010
-0.3010 POSITION </s> -0.3010
-0.3010 PRESS </s> -0.3010
-0.3010 PRESSING </s> -0.3010
-0.3010 PREVENT </s> -0.3010
-0.3010 PREVIOUS </s> -0.3010
-0.3010 PROBLEMS </s> -0.3010
-0.3010 PROCESS </s> -0.3010
-0.3010 PRODUCES </s> -0.3010
-0.3010 PROGRESS </s> -0.3010
-0.3010 PROJECT </s> -0.3010
-0.3010 PROJECTS </s> -0.3010
-0.3010 PROPERTIES </s> -0.3010
-0.3010 PUT </s> -0.3010
-0.3010 QUICKER </s> -0.3010
-0.3010 QUITE </s> -0.3010
-0.3010 R </s> -0.3010
-0.3010 RADIUS </s> -0.3010
-0.3010 READY </s> -0.3010
-0.3010 REDUCE </s> -0.3010
-0.3010 REFERRED </s> -0.3010
-0.3010 REFLECTIONS </s> -0.3010
-0.3010 RELOAD </s> -0.3010
-0.3010 RENDER </s> -0.3010
-0.3010 RENDERED </s> -0.3010
-0.3010 RENDERING </s> -0.3010
-0.3010 RENTED </s> -0.3010
-0.3010 REPEAT </s> -0.3010
-0.3010 REPLACE </s> -0.3010
-0.3010 REQUIRE </s> -0.3010
-0.3010 REQUIRED </s> -0.3010
-0.3010 RESIZE </s> -0.3010
-0.3010 RESOLUTION </s> -0.3010
-0.3010 RESTING </s> -0.3010
-0.3010 RESTLESS </s> -0.3010
-0.3010 RESULT </s> -0.3010
-0.3010 RETURN </s> -0.3010
-0.3010 RIGHT </s> -0.3010
-0.3010 RIGHT-CLICK </s> -0.3010
-0.3010 RIGHT-CLICKING </s> -0.3010
-0.3010 RIM </s> -0.3010
-0.3010 ROOM </s> -0.3010
-0.3010 ROTATE </s> -0.3010
-0.3010 ROTATED </s> -0.3010
-0.3010 ROTATION </s> -0.3010
-0.3010 ROUGHNESS </s> -0.3010
-0.3010 ROUND </s> -0.3010
-0.3010 ROUNDED </s> -0.3010
-0.3010 RUN </s> -0.3010
-0.3010 S </s> -0.3010
-0.3010 SAME </s> -0.3010
-0.3010 SAMPLE </s> -0.3010
-0.3010 SAMPLES </s> -0.3010
-0.3010 SAVE </s> -0.3010
-0.3010 SAVED </s> -0.3010
-0.3010 SCALE </s> -0.3010
-0.3010 SCALED </s> -0.3010
-0.3010 SCENE </s> -0.3010
-0.3010 SCREEN </s> -0.3010
-0.3010 SCREWED </s> -0.3010
-0.3010 SCRUB </s> -0.3010
-0.3010 SECOND </s> -0.3010
-0.3010 SECONDS </s> -0.3010
-0.3010 SECTION </s> -0.3010
-0.3010 SEE </s> -0.3010
-0.3010 SEEMS </s> -0.3010
-0.3010 SEEN </s> -0.3010
-0.3010 SELECT </s> -0.3010
-0.3010 SELECTED </s> -0.3010
-0.3010 SELECTION </s> -0.3010
-0.3010 SEND </s> -0.3010
-0.3010 SEPARATE </s> -0.3010
-0.3010 SET </s> -0.3010
-0.3010 SETTING </s> -0.3010
-0.3010 SETTINGS </s> -0.3010
-0.3010 SEVEN </s> -0.3010
-0.3010 SHADER </s> -0.3010
-0.3010 SHADERS </s> -0.3010
-0.3010 SHAPE </s> -0.3010
-0.3010 SHARPEN </s> -0.3010
-0.3010 SHE </s> -0.3010
-0.3010 SHIFT </s> -0.3010
-0.3010 SHOULD </s> -0.3010
-0.3010 SHOULDN'T </s> -0.3010
-0.3010 SHOW </s> -0.3010
-0.3010 SHOWING </s> -0.3010
-0.3010 SHOWN </s> -0.3010
-0.3010 SHOWS </s> -0.3010
-0.3010 SHUT </s> -0.3010
-0.3010 SIDE </s> -0.3010
-0.3010 SIMULATION </s> -0.3010
-0.3010 SINCE </s> -0.3010
-0.3010 SIT </s> -0.3010
-0.3010 SIX </s> -0.3010
-0.3010 SIZE </s> -0.3010
-0.3010 SLIDE </s> -0.3010
-0.3010 SLOW </s> -0.3010
-0.3010 SMALL </s> -0.3010
-0.3010 SMOOTH </s> -0.3010
-0.3010 SO </s> -0.3010
-0.3010 SOLDER </s> -0.3010
-0.3010 SOLID </s> -0.3010
-0.3010 SOME </s> -0.3010
-0.3010 SOMEBODY </s> -0.3010
-0.3010 SOMETHING </s> -0.3010
-0.3010 SOMETIMES </s> -0.3010
-0.3010 SOURCE </s> -0.3010
-0.3010 SPECIFIED </s> -0.3010
-0.3010 SPECKLES </s> -0.3010
-0.3010 SPEED </s> -0.3010
-0.3010 SPHERE </s> -0.3010
-0.3010 SPLIT </s> -0.3010
-0.3010 SPOTS </s> -0.3010
-0.3010 START </s> -0.3010
-0.3010 STARTED </s> -0.3010
-0.3010 STARTUP </s> -0.3010
-0.3010 STILL </s> -0.3010
-0.3010 STOP </s> -0.3010
-0.3010 STRAIGHT </s> -0.3010
-0.3010 STREAM </s> -0.3010
-0.3010 STRENGTH </s> -0.3010
-0.3010 STRETCH </s> -0.3010
-0.3010 SUB-DIRECTORY </s> -0.3010
-0.3010 SUBDIVISION </s> -0.3010
-0.3010 SUBSCRIBE </s> -0.3010
-0.3010 SURE </s> -0.3010
-0.3010 SURF </s> -0.3010
-0.3010 SURFACE </s> -0.3010
-0.3010 SURRENDER </s> -0.3010
-0.3010 SURRENDERED </s> -0.3010
-0.3010 SWITCH </s> -0.3010
-0.3010 SYNC </s> -0.3010
-0.3010 TAB </s> -0.3010
-0.3010 TAKE </s> -0.3010
-0.3010 TAN </s> -0.3010
-0.3010 TEXT </s> -0.3010
-0.3010 TEXTS </s> -0.3010
-0.3010 TEXTURE </s> -0.3010
-0.3010 THAN </s> -0.3010
-0.3010 THANKS </s> -0.3010
-0.3010 THAT </s> -0.3010
-0.3010 THAT'S </s> -0.3010
-0.3010 THE </s> -0.3010
-0.3010 THEM </s> -0.3010
-0.3010 THEN </s> -0.3010
-0.3010 THEN- POINT2 0.0000
-0.3010 THERE </s> -0.3010
-0.3010 THESE </s> -0.3010
-0.3010 THICKNESS </s> -0.3010
-0.3010 THINGS </s> -0.3010
-0.3010 THIS </s> -0.3010
-0.3010 THOUGHT </s> -0.3010
-0.3010 THREE </s> -0.3010
-0.3010 THROUGH </s> -0.3010
-0.3010 THU </s> -0.3010
-0.3010 TIME </s> -0.3010
-0.3010 TIMELINE </s> -0.3010
-0.3010 TO </s> -0.3010
-0.3010 TOGETHER </s> -0.3010
-0.3010 TOO </s> -0.3010
-0.3010 TOOK </s> -0.3010
-0.3010 TOOLS </s> -0.3010
-0.3010 TOP </s> -0.3010
-0.3010 TORUS </s> -0.3010
-0.3010 TOURISTS </s> -0.3010
-0.3010 TOWARD </s> -0.3010
-0.3010 TRIANGLE </s> -0.3010
-0.3010 TUNE </s> -0.3010
-0.3010 TURN </s> -0.3010
-0.3010 TWICE </s> -0.3010
-0.3010 TWO </s> -0.3010
-0.3010 TYPE </s> -0.3010
-0.3010 UNDER </s> -0.3010
-0.3010 UNTIL </s> -0.3010
-0.3010 UNWANTED </s> -0.3010
-0.3010 UNWRAP </s> -0.3010
-0.3010 UNWRAPPED </s> -0.3010
-0.3010 UP </s> -0.3010
-0.3010 US </s> -0.3010
-0.3010 USE </s> -0.3010
-0.3010 USED </s> -0.3010
-0.3010 USING </s> -0.3010
-0.3010 UV </s> -0.3010
-0.3010 UV/IMAGE </s> -0.3010
-0.3010 VALUE </s> -0.3010
-0.3010 VALUES </s> -0.3010
-0.3010 VARY </s> -0.3010
-0.3010 VELOCITY </s> -0.3010
-0.3010 VERIFY </s> -0.3010
-0.3010 VERSION </s> -0.3010
-0.3010 VERTEX </s> -0.3010
-0.3010 VERTICES </s> -0.3010
-0.3010 VERY </s> -0.3010
-0.3010 VIDEO </s> -0.3010
-0.3010 VIEW </s> -0.3010
-0.3010 VIEWPORT </s> -0.3010
-0.3010 VISIBLE </s> -0.3010
-0.3010 WAIT </s> -0.3010
-0.3010 WANT </s> -0.3010
-0.3010 WAS </s> -0.3010
-0.3010 WATCH </s> -0.3010
-0.3010 WATCHING </s> -0.3010
-0.3010 WATER </s> -0.3010
-0.3010 WAY </s> -0.3010
-0.3010 WE </s> -0.3010
-0.3010 WE'LL </s> -0.3010
-0.3010 WE'RE </s> -0.3010
-0.3010 WEDGES </s> -0.3010
-0.3010 WELL </s> -0.3010
-0.3010 WHAT </s> -0.3010
-0.3010 WHEN </s> -0.3010
-0.3010 WHERE </s> -0.3010
-0.3010 WHICH </s> -0.3010
-0.3010 WHILE </s> -0.3010
-0.3010 WHITE </s> -0.3010
-0.3010 WHOLE </s> -0.3010
-0.3010 WHY </s> -0.3010
-0.3010 WIFE </s> -0.3010
-0.3010 WILL </s> -0.3010
-0.3010 WINDOW </s> -0.3010
-0.3010 WINDOWS </s> -0.3010
-0.3010 WIREFRAME </s> -0.3010
-0.3010 WITH </s> -0.3010
-0.3010 WITHOUT </s> -0.3010
-0.3010 WON'T </s> -0.3010
-0.3010 WORD </s> -0.3010
-0.3010 WORK </s> -0.3010
-0.3010 WORLD </s> -0.3010
-0.3010 WRONG </s> -0.3010
-0.3010 X </s> -0.3010
-0.3010 X-AXIS </s> -0.3010
-0.3010 Y </s> -0.3010
-0.3010 YOU </s> -0.3010
-0.3010 YOU'LL </s> -0.3010
-0.3010 YOU'RE </s> -0.3010
-0.3010 YOUR </s> -0.3010
-0.3010 YOUTH </s> -0.3010
-0.3010 Z </s> -0.3010
-0.3010 Z-AXIS </s> -0.3010
-0.3010 Z-DIRECTION </s> -0.3010
-0.3010 ZERO </s> -0.3010
-0.3010 ZOOM </s> -0.3010

\3-grams:
-0.3010 <s> 0 </s>
-0.3010 <s> 0.5 </s>
-0.3010 <s> 0000 </s>
-0.3010 <s> 01 </s>
-0.3010 <s> 1 </s>
-0.3010 <s> 1.02 </s>
-0.3010 <s> 1.05 </s>
-0.3010 <s> 1.1 </s>
-0.3010 <s> 1.5 </s>
-0.3010 <s> 10 </s>
-0.3010 <s> 10.05 </s>
-0.3010 <s> 10.09 </s>
-0.3010 <s> 10.2 </s>
-0.3010 <s> 10.9 </s>
-0.3010 <s> 100 </s>
-0.3010 <s> 12 </s>
-0.3010 <s> 15 </s>
-0.3010 <s> 2 </s>
-0.3010 <s> 2.02 </s>
-0.3010 <s> 2.05 </s>
-0.3010 <s> 2.1 </s>
-0.3010 <s> 2.15 </s>
-0.3010 <s> 2.54 </s>
-0.3010 <s> 2.7 </s>
-0.3010 <s> 20 </s>
-0.3010 <s> 20.3 </s>
-0.3010 <s> 200 </s>
-0.3010 <s> 21 </s>
-0.3010 <s> 21.8 </s>
-0.3010 <s> 22 </s>
-0.3010 <s> 22.5 </s>
-0.3010 <s> 225 </s>
-0.3010 <s> 23 </s>
-0.3010 <s> 25 </s>
-0.3010 <s> 250 </s>
-0.3010 <s> 27 </s>
-0.3010 <s> 3D </s>
-0.3010 <s> 41 </s>
-0.3010 <s> 5,000 </s>
-0.3010 <s> 50 </s>
-0.3010 <s> 6B </s>
-0.3010 <s> 75 </s>
-0.3010 <s> 796 </s>
-0.3010 <s> 8A </s>
-0.3010 <s> 90 </s>
-0.3010 <s> 9C </s>
-0.3010 <s> A </s>
-0.3010 <s> ABOUT </s>
-0.3010 <s> ABOVE </s>
-0.3010 <s> ACCURATE </s>
-0.3010 <s> ADD </s>
-0.3010 <s> ADDED </s>
-0.3010 <s> ADDING </s>
-0.3010 <s> ADDITIONAL </s>
-0.3010 <s> ADJUSTMENTS </s>
-0.3010 <s> AFFECTING </s>
-0.3010 <s> AFTER </s>
-0.3010 <s> AGAIN </s>
-0.3010 <s> AGE </s>
-0.3010 <s> AGED </s>
-0.3010 <s> ALL </s>
-0.3010 <s> ALLOW </s>
-0.3010 <s> ALSO </s>
-0.3010 <s> ALT </s>
-0.3010 <s> AN </s>
-0.3010 <s> AND </s>
-0.3010 <s> ANGLED </s>
-0.3010 <s> ANIMATION </s>
-0.3010 <s> ANOTHER </s>
-0.3010 <s> ANSWER </s>
-0.3010 <s> ANY </s>
-0.3010 <s> ARE </s>
-0.3010 <s> AREA </s>
-0.3010 <s> AREAS </s>
-0.3010 <s> AROUND </s>
-0.3010 <s> AS </s>
-0.3010 <s> ASSIGN </s>
-0.3010 <s> ASSUMING </s>
-0.3010 <s> AT </s>
-0.3010 <s> AUXILIARY </s>
-0.3010 <s> AWARE </s>
-0.3010 <s> AWAY </s>
-0.3010 <s> AXIS </s>
-0.3010 <s> BACK </s>
-0.3010 <s> BACKGROUND </s>
-0.3010 <s> BACKSPACE </s>
-0.3010 <s> BAKE </s>
-0.3010 <s> BAKED </s>
-0.3010 <s> BAKING </s>
-0.3010 <s> BALANCED </s>
-0.3010 <s> BALANCES </s>
-0.3010 <s> BAR </s>
-0.3010 <s> BE </s>
-0.3010 <s> BE4 </s>
-0.3010 <s> BECAUSE </s>
-0.3010 <s> BECOME </s>
-0.3010 <s> BEFORE </s>
-0.3010 <s> BEGINNING </s>
-0.3010 <s> BEING </s>
-0.3010 <s> BELOW </s>
-0.3010 <s> BETTER </s>
-0.3010 <s> BETWEEN </s>
-0.3010 <s> BEVEL </s>
-0.3010 <s> BEVELED </s>
-0.3010 <s> BEYOND </s>
-0.3010 <s> BIG-TIME </s>
-0.3010 <s> BIT </s>
-0.3010 <s> BLACK </s>
-0.3010 <s> BLEND </s>
-0.3010 <s> BLENDED </s>
-0.3010 <s> BLENDER </s>
-0.3010 <s> BORDER </s>
-0.3010 <s> BOTTOM </s>
-0.3010 <s> BOUNCE </s>
-0.3010 <s> BOUNCES </s>
-0.3010 <s> BOUNCING </s>
-0.3010 <s> BOX </s>
-0.3010 <s> BRIGHT </s>
-0.3010 <s> BRING </s>
-0.3010 <s> BUT </s>
-0.3010 <s> BUTTON </s>
-0.3010 <s> BY </s>
-0.3010 <s> CAB </s>
-0.3010 <s> CAMERA </s>
-0.3010 <s> CAN </s>
-0.3010 <s> CAPABILITIES </s>
-0.3010 <s> CASE </s>
-0.3010 <s> CAUSE </s>
-0.3010 <s> CENTER </s>
-0.3010 <s> CENTERED </s>
-0.3010 <s> CENTRE </s>
-0.3010 <s> CHANGE </s>
-0.3010 <s> CHANGES </s>
-0.3010 <s> CHANNEL </s>
-0.3010 <s> CHANNELS </s>
-0.3010 <s> CHECKER </s>
-0.3010 <s> CHECKMARK </s>
-0.3010 <s> CHOOSE </s>
-0.3010 <s> CLAMP </s>
-0.3010 <s> CLICK </s>
-0.3010 <s> CLICKING </s>
-0.3010 <s> CLOSE </s>
-0.3010 <s> COLOR </s>
-0.3010 <s> COME </s>
-0.3010 <s> COMING </s>
-0.3010 <s> COMMENT </s>
-0.3010 <s> COMPOSITING </s>
-0.3010 <s> COMPUTER </s>
-0.3010 <s> CONCLUDES </s>
-0.3010 <s> CONCRETE </s>
-0.3010 <s> CONNECT </s>
-0.3010 <s> CONNECTED </s>
-0.3010 <s> CONNECTING </s>
-0.3010 <s> CONNECTION </s>
-0.3010 <s> CONTRAST </s>
-0.3010 <s> CONTROL </s>
-0.3010 <s> CONTROLLED </s>
-0.3010 <s> CONVERT </s>
-0.3010 <s> COPPER </s>
-0.3010 <s> COPY </s>
-0.3010 <s> CORNERS </s>
-0.3010 <s> CORRECT </s>
-0.3010 <s> COST </s>
-0.3010 <s> COUPLE </s>
-0.3010 <s> CREATING </s>
-0.3010 <s> CTRL </s>
-0.3010 <s> CUBE </s>
-0.3010 <s> CUBED </s>
-0.3010 <s> CURRENT </s>
-0.3010 <s> CURRENTLY </s>
-0.3010 <s> CURSOR </s>
-0.3010 <s> CURVE </s>
-0.3010 <s> CUT </s>
-0.3010 <s> CUTS </s>
-0.3010 <s> CYCLE </s>
-0.3010 <s> D </s>
-0.3010 <s> DAMN </s>
-0.3010 <s> DARKEN </s>
-0.3010 <s> DATA </s>
-0.3010 <s> DAY </s>
-0.3010 <s> DECIDE </s>
-0.3010 <s> DEFAULT </s>
-0.3010 <s> DEFINE </s>
-0.3010 <s> DELETE </s>
-0.3010 <s> DEMONSTRATING </s>
-0.3010 <s> DEPTH </s>
-0.3010 <s> DESCRIPTION </s>
-0.3010 <s> DETAIL </s>
-0.3010 <s> DID </s>
-0.3010 <s> DIFFERENT </s>
-0.3010 <s> DIFFUSE </s>
-0.3010 <s> DIRECTION </s>
-0.3010 <s> DIRECTIONS </s>
-0.3010 <s> DIRECTORIES </s>
-0.3010 <s> DIRECTORY </s>
-0.3010 <s> DIRTY </s>
-0.3010 <s> DISPLACEMENT </s>
-0.3010 <s> DISPLAY </s>
-0.3010 <s> DISTANCE </s>
-0.3010 <s> DIVISION </s>
-0.3010 <s> DIVISIONS </s>
-0.3010 <s> DO </s>
-0.3010 <s> DOES </s>
-0.3010 <s> DOESN'T </s>
-0.3010 <s> DOMAIN </s>
-0.3010 <s> DON'T </s>
-0.3010 <s> DONE </s>
-0.3010 <s> DOTS </s>
-0.3010 <s> DOWN </s>
-0.3010 <s> DOWNLOADING </s>
-0.3010 <s> DRAG </s>
-0.3010 <s> DRAGGED </s>
-0.3010 <s> DROP </s>
-0.3010 <s> DROP-DOWN </s>
-0.3010 <s> DUPLICATED </s>
-0.3010 <s> DURING </s>
-0.3010 <s> E </s>
-0.3010 <s> EACH </s>
-0.3010 <s> EARLIER </s>
-0.3010 <s> EASIER </s>
-0.3010 <s> EDGE </s>
-0.3010 <s> EDGES </s>
-0.3010 <s> EDIT </s>
-0.3010 <s> EDITOR </s>
-0.3010 <s> EDITORS </s>
-0.3010 <s> EFFECT </s>
-0.3010 <s> EIGHT </s>
-0.3010 <s> EIGHT-SECOND </s>
-0.3010 <s> ELBOW </s>
-0.3010 <s> END </s>
-0.3010 <s> ENTER </s>
-0.3010 <s> ENTRY </s>
-0.3010 <s> EQUIVALENT </s>
-0.3010 <s> ESCAPE </s>
-0.3010 <s> EVEN </s>
-0.3010 <s> EXAMPLE </s>
-0.3010 <s> EXPAND </s>
-0.3010 <s> EXPLORER </s>
-0.3010 <s> EXTENDING </s>
-0.3010 <s> EXTENDS </s>
-0.3010 <s> EXTRUDE </s>
-0.3010 <s> F </s>
-0.3010 <s> F10 </s>
-0.3010 <s> F11 </s>
-0.3010 <s> FACE </s>
-0.3010 <s> FACES </s>
-0.3010 <s> FACING </s>
-0.3010 <s> FACTOR </s>
-0.3010 <s> FALL </s>
-0.3010 <s> FAR </s>
-0.3010 <s> FAST </s>
-0.3010 <s> FEAR </s>
-0.3010 <s> FEW </s>
-0.3010 <s> FF </s>
-0.3010 <s> FILE </s>
-0.3010 <s> FILM </s>
-0.3010 <s> FINAL </s>
-0.3010 <s> FIND </s>
-0.3010 <s> FINE </s>
-0.3010 <s> FINISH </s>
-0.3010 <s> FINISHED </s>
-0.3010 <s> FIREFLIES </s>
-0.3010 <s> FIRST </s>
-0.3010 <s> FITTING </s>
-0.3010 <s> FIVE </s>
-0.3010 <s> FIX </s>
-0.3010 <s> FLOAT </s>
-0.3010 <s> FLOOR </s>
-0.3010 <s> FLOW </s>
-0.3010 <s> FLUID </s>
-0.3010 <s> FOOT </s>
-0.3010 <s> FOR </s>
-0.3010 <s> FORMAT </s>
-0.3010 <s> FORMATS </s>
-0.3010 <s> FORMS </s>
-0.3010 <s> FORWARD </s>
-0.3010 <s> FOUR </s>
-0.3010 <s> FRAME </s>
-0.3010 <s> FRAMES </s>
-0.3010 <s> FROM </s>
-0.3010 <s> FRONT </s>
-0.3010 <s> FULLEST </s>
-0.3010 <s> G </s>
-0.3010 <s> GAMMA </s>
-0.3010 <s> GEOMETRY </s>
-0.3010 <s> GET </s>
-0.3010 <s> GLASS </s>
-0.3010 <s> GLOSSY </s>
-0.3010 <s> GO </s>
-0.3010 <s> GOES </s>
-0.3010 <s> GOING </s>
-0.3010 <s> GOOD </s>
-0.3010 <s> GRADE </s>
-0.3010 <s> GRAPH </s>
-0.3010 <s> GRASS </s>
-0.3010 <s> GRAY </s>
-0.3010 <s> GRID </s>
-0.3010 <s> HAD </s>
-0.3010 <s> HALF </s>
-0.3010 <s> HAVE </s>
-0.3010 <s> HELP </s>
-0.3010 <s> HERE </s>
-0.3010 <s> HEX </s>
-0.3010 <s> HIGHER </s>
-0.3010 <s> HOLD </s>
-0.3010 <s> HOLDING </s>
-0.3010 <s> HOLDS </s>
-0.3010 <s> HORA </s>
-0.3010 <s> HOW </s>
-0.3010 <s> HUMAN </s>
-0.3010 <s> I </s>
-0.3010 <s> I'D </s>
-0.3010 <s> I'LL </s>
-0.3010 <s> I'M </s>
-0.3010 <s> I'VE </s>
-0.3010 <s> IDEA </s>
-0.3010 <s> IF </s>
-0.3010 <s> IMAGE </s>
-0.3010 <s> IN </s>
-0.3010 <s> INCREASES </s>
-0.3010 <s> INCREASING </s>
-0.3010 <s> INDIRECT </s>
-0.3010 <s> INDIVIDUAL </s>
-0.3010 <s> INFLOW </s>
-0.3010 <s> INPUT </s>
-0.3010 <s> INSIDE </s>
-0.3010 <s> INTERACT </s>
-0.3010 <s> INTERFERE </s>
-0.3010 <s> INTERVIEW </s>
-0.3010 <s> INTO </s>
-0.3010 <s> IS </s>
-0.3010 <s> IT </s>
-0.3010 <s> IT'S </s>
-0.3010 <s> ITS </s>
-0.3010 <s> ITSELF </s>
-0.3010 <s> JUST </s>
-0.3010 <s> KEEP </s>
-0.3010 <s> KEY </s>
-0.3010 <s> KEYFRAME </s>
-0.3010 <s> L </s>
-0.3010 <s> LAMP </s>
-0.3010 <s> LARGEST </s>
-0.3010 <s> LAST </s>
-0.3010 <s> LATER </s>
-0.3010 <s> LAYER </s>
-0.3010 <s> LAYOUT </s>
-0.3010 <s> LEAVE </s>
-0.3010 <s> LEFT </s>
-0.3010 <s> LEFT-CLICK </s>
-0.3010 <s> LENGTH </s>
-0.3010 <s> LET'S </s>
-0.3010 <s> LIGHT </s>
-0.3010 <s> LIKE </s>
-0.3010 <s> LIMITS </s>
-0.3010 <s> LINES </s>
-0.3010 <s> LINK </s>
-0.3010 <s> LITTLE </s>
-0.3010 <s> LOCATED </s>
-0.3010 <s> LOCATION </s>
-0.3010 <s> LOCK </s>
-0.3010 <s> LONG </s>
-0.3010 <s> LONGER </s>
-0.3010 <s> LOOK </s>
-0.3010 <s> LOOKING </s>
-0.3010 <s> LOOKS </s>
-0.3010 <s> LOOP </s>
-0.3010 <s> LOU </s>
-0.3010 <s> MAIN </s>
-0.3010 <s> MAJOR </s>
-0.3010 <s> MAKE </s>
-0.3010 <s> MAKING </s>
-0.3010 <s> MATERIAL </s>
-0.3010 <s> MATERIALS </s>
-0.3010 <s> MAXIMUM </s>
-0.3010 <s> MAY </s>
-0.3010 <s> MEG </s>
-0.3010 <s> MEMORY </s>
-0.3010 <s> MENU </s>
-0.3010 <s> MESH </s>
-0.3010 <s> MESS </s>
-0.3010 <s> MET </s>
-0.3010 <s> META </s>
-0.3010 <s> MIDDLE </s>
-0.3010 <s> MINOR </s>
-0.3010 <s> MINUS </s>
-0.3010 <s> MINUTES </s>
-0.3010 <s> MIX </s>
-0.3010 <s> MIXED </s>
-0.3010 <s> MODE </s>
-0.3010 <s> MODELING </s>
-0.3010 <s> MODIFIER </s>
-0.3010 <s> MODIFIERS </s>
-0.3010 <s> MODIFY </s>
-0.3010 <s> MODIFYING </s>
-0.3010 <s> MORE </s>
-0.3010 <s> MOTION </s>
-0.3010 <s> MOUSE </s>
-0.3010 <s> MOVE </s>
-0.3010 <s> MOVEMENT </s>
-0.3010 <s> MOVIE </s>
-0.3010 <s> MOVING </s>
-0.3010 <s> MULTIPLE </s>
-0.3010 <s> MY </s>
-0.3010 <s> NAME </s>
-0.3010 <s> NAMED </s>
-0.3010 <s> NAVIGATE </s>
-0.3010 <s> NEAR </s>
-0.3010 <s> NEED </s>
-0.3010 <s> NEW </s>
-0.3010 <s> NEXT </s>
-0.3010 <s> NINE </s>
-0.3010 <s> NO </s>
-0.3010 <s> NODE </s>
-0.3010 <s> NODES </s>
-0.3010 <s> NOISE </s>
-0.3010 <s> NONE </s>
-0.3010 <s> NOT </s>
-0.3010 <s> NOTHING </s>
-0.3010 <s> NOTICE </s>
-0.3010 <s> NOW </s>
-0.3010 <s> NUMBER </s>
-0.3010 <s> NZ </s>
-0.3010 <s> OBJECT </s>
-0.3010 <s> OBJECTS </s>
-0.3010 <s> OBSTACLE </s>
-0.3010 <s> OF </s>
-0.3010 <s> OFF </s>
-0.3010 <s> OFFSET </s>
-0.3010 <s> OK </s>
-0.3010 <s> OLDER </s>
-0.3010 <s> ON </s>
-0.3010 <s> ONCE </s>
-0.3010 <s> ONE </s>
-0.3010 <s> ONE-QUARTER </s>
-0.3010 <s> ONLY </s>
-0.3010 <s> OPEN </s>
-0.3010 <s> OPENING </s>
-0.3010 <s> OPTIONS </s>
-0.3010 <s> OR </s>
-0.3010 <s> ORIGIN </s>
-0.3010 <s> ORIGINAL </s>
-0.3010 <s> ORTHOGRAPHIC </s>
-0.3010 <s> OTHER </s>
-0.3010 <s> OUR </s>
-0.3010 <s> OUT </s>
-0.3010 <s> OUTPUT </s>
-0.3010 <s> OUTSIDE </s>
-0.3010 <s> OVER </s>
-0.3010 <s> OVERLAID </s>
-0.3010 <s> OWN </s>
-0.3010 <s> PAD </s>
-0.3010 <s> PAN </s>
-0.3010 <s> PANEL </s>
-0.3010 <s> PART </s>
-0.3010 <s> PAST </s>
-0.3010 <s> PAUSE </s>
-0.3010 <s> PERFECT </s>
-0.3010 <s> PERSPECTIVE </s>
-0.3010 <s> PHYSICS </s>
-0.3010 <s> PIPE </s>
-0.3010 <s> PIPER </s>
-0.3010 <s> PIPES </s>
-0.3010 <s> PLACE </s>
-0.3010 <s> PLANE </s>
-0.3010 <s> PLATE </s>
-0.3010 <s> PLAY </s>
-0.3010 <s> PLAYER </s>
-0.3010 <s> PLAYING </s>
-0.3010 <s> PLEASE </s>
-0.3010 <s> PLUS </s>
-0.3010 <s> POINT </s>
-0.3010 <s> POINT2 </s>
-0.3010 <s> POSITION </s>
-0.3010 <s> PRESS </s>
-0.3010 <s> PRESSING </s>
-0.3010 <s> PREVENT </s>
-0.3010 <s> PREVIOUS </s>
-0.3010 <s> PROBLEMS </s>
-0.3010 <s> PROCESS </s>
-0.3010 <s> PRODUCES </s>
-0.3010 <s> PROGRESS </s>
-0.3010 <s> PROJECT </s>
-0.3010 <s> PROJECTS </s>
-0.3010 <s> PROPERTIES </s>
-0.3010 <s> PUT </s>
-0.3010 <s> QUICKER </s>
-0.3010 <s> QUITE </s>
-0.3010 <s> R </s>
-0.3010 <s> RADIUS </s>
-0.3010 <s> READY </s>
-0.3010 <s> REDUCE </s>
-0.3010 <s> REFERRED </s>
-0.3010 <s> REFLECTIONS </s>
-0.3010 <s> RELOAD </s>
-0.3010 <s> RENDER </s>
-0.3010 <s> RENDERED </s>
-0.3010 <s> RENDERING </s>
-0.3010 <s> RENTED </s>
-0.3010 <s> REPEAT </s>
-0.3010 <s> REPLACE </s>
-0.3010 <s> REQUIRE </s>
-0.3010 <s> REQUIRED </s>
-0.3010 <s> RESIZE </s>
-0.3010 <s> RESOLUTION </s>
-0.3010 <s> RESTING </s>
-0.3010 <s> RESTLESS </s>
-0.3010 <s> RESULT </s>
-0.3010 <s> RETURN </s>
-0.3010 <s> RIGHT </s>
-0.3010 <s> RIGHT-CLICK </s>
-0.3010 <s> RIGHT-CLICKING </s>
-0.3010 <s> RIM </s>
-0.3010 <s> ROOM </s>
-0.3010 <s> ROTATE </s>
-0.3010 <s> ROTATED </s>
-0.3010 <s> ROTATION </s>
-0.3010 <s> ROUGHNESS </s>
-0.3010 <s> ROUND </s>
-0.3010 <s> ROUNDED </s>
-0.3010 <s> RUN </s>
-0.3010 <s> S </s>
-0.3010 <s> SAME </s>
-0.3010 <s> SAMPLE </s>
-0.3010 <s> SAMPLES </s>
-0.3010 <s> SAVE </s>
-0.3010 <s> SAVED </s>
-0.3010 <s> SCALE </s>
-0.3010 <s> SCALED </s>
-0.3010 <s> SCENE </s>
-0.3010 <s> SCREEN </s>
-0.3010 <s> SCREWED </s>
-0.3010 <s> SCRUB </s>
-0.3010 <s> SECOND </s>
-0.3010 <s> SECONDS </s>
-0.3010 <s> SECTION </s>
-0.3010 <s> SEE </s>
-0.3010 <s> SEEMS </s>
-0.3010 <s> SEEN </s>
-0.3010 <s> SELECT </s>
-0.3010 <s> SELECTED </s>
-0.3010 <s> SELECTION </s>
-0.3010 <s> SEND </s>
-0.3010 <s> SEPARATE </s>
-0.3010 <s> SET </s>
-0.3010 <s> SETTING </s>
-0.3010 <s> SETTINGS </s>
-0.3010 <s> SEVEN </s>
-0.3010 <s> SHADER </s>
-0.3010 <s> SHADERS </s>
-0.3010 <s> SHAPE </s>
-0.3010 <s> SHARPEN </s>
-0.3010 <s> SHE </s>
-0.3010 <s> SHIFT </s>
-0.3010 <s> SHOULD </s>
-0.3010 <s> SHOULDN'T </s>
-0.3010 <s> SHOW </s>
-0.3010 <s> SHOWING </s>
-0.3010 <s> SHOWN </s>
-0.3010 <s> SHOWS </s>
-0.3010 <s> SHUT </s>
-0.3010 <s> SIDE </s>
-0.3010 <s> SIMULATION </s>
-0.3010 <s> SINCE </s>
-0.3010 <s> SIT </s>
-0.3010 <s> SIX </s>
-0.3010 <s> SIZE </s>
-0.3010 <s> SLIDE </s>
-0.3010 <s> SLOW </s>
-0.3010 <s> SMALL </s>
-0.3010 <s> SMOOTH </s>
-0.3010 <s> SO </s>
-0.3010 <s> SOLDER </s>
-0.3010 <s> SOLID </s>
-0.3010 <s> SOME </s>
-0.3010 <s> SOMEBODY </s>
-0.3010 <s> SOMETHING </s>
-0.3010 <s> SOMETIMES </s>
-0.3010 <s> SOURCE </s>
-0.3010 <s> SPECIFIED </s>
-0.3010 <s> SPECKLES </s>
-0.3010 <s> SPEED </s>
-0.3010 <s> SPHERE </s>
-0.3010 <s> SPLIT </s>
-0.3010 <s> SPOTS </s>
-0.3010 <s> START </s>
-0.3010 <s> STARTED </s>
-0.3010 <s> STARTUP </s>
-0.3010 <s> STILL </s>
-0.3010 <s> STOP </s>
-0.3010 <s> STRAIGHT </s>
-0.3010 <s> STREAM </s>
-0.3010 <s> STRENGTH </s>
-0.3010 <s> STRETCH </s>
-0.3010 <s> SUB-DIRECTORY </s>
-0.3010 <s> SUBDIVISION </s>
-0.3010 <s> SUBSCRIBE </s>
-0.3010 <s> SURE </s>
-0.3010 <s> SURF </s>
-0.3010 <s> SURFACE </s>
-0.3010 <s> SURRENDER </s>
-0.3010 <s> SURRENDERED </s>
-0.3010 <s> SWITCH </s>
-0.3010 <s> SYNC </s>
-0.3010 <s> TAB </s>
-0.3010 <s> TAKE </s>
-0.3010 <s> TAN </s>
-0.3010 <s> TEXT </s>
-0.3010 <s> TEXTS </s>
-0.3010 <s> TEXTURE </s>
-0.3010 <s> THAN </s>
-0.3010 <s> THANKS </s>
-0.3010 <s> THAT </s>
-0.3010 <s> THAT'S </s>
-0.3010 <s> THE </s>
-0.3010 <s> THEM </s>
-0.3010 <s> THEN </s>
-0.3010 <s> THEN- POINT2
-0.3010 <s> THERE </s>
-0.3010 <s> THESE </s>
-0.3010 <s> THICKNESS </s>
-0.3010 <s> THINGS </s>
-0.3010 <s> THIS </s>
-0.3010 <s> THOUGHT </s>
-0.3010 <s> THREE </s>
-0.3010 <s> THROUGH </s>
-0.3010 <s> THU </s>
-0.3010 <s> TIME </s>
-0.3010 <s> TIMELINE </s>
-0.3010 <s> TO </s>
-0.3010 <s> TOGETHER </s>
-0.3010 <s> TOO </s>
-0.3010 <s> TOOK </s>
-0.3010 <s> TOOLS </s>
-0.3010 <s> TOP </s>
-0.3010 <s> TORUS </s>
-0.3010 <s> TOURISTS </s>
-0.3010 <s> TOWARD </s>
-0.3010 <s> TRIANGLE </s>
-0.3010 <s> TUNE </s>
-0.3010 <s> TURN </s>
-0.3010 <s> TWICE </s>
-0.3010 <s> TWO </s>
-0.3010 <s> TYPE </s>
-0.3010 <s> UNDER </s>
-0.3010 <s> UNTIL </s>
-0.3010 <s> UNWANTED </s>
-0.3010 <s> UNWRAP </s>
-0.3010 <s> UNWRAPPED </s>
-0.3010 <s> UP </s>
-0.3010 <s> US </s>
-0.3010 <s> USE </s>
-0.3010 <s> USED </s>
-0.3010 <s> USING </s>
-0.3010 <s> UV </s>
-0.3010 <s> UV/IMAGE </s>
-0.3010 <s> VALUE </s>
-0.3010 <s> VALUES </s>
-0.3010 <s> VARY </s>
-0.3010 <s> VELOCITY </s>
-0.3010 <s> VERIFY </s>
-0.3010 <s> VERSION </s>
-0.3010 <s> VERTEX </s>
-0.3010 <s> VERTICES </s>
-0.3010 <s> VERY </s>
-0.3010 <s> VIDEO </s>
-0.3010 <s> VIEW </s>
-0.3010 <s> VIEWPORT </s>
-0.3010 <s> VISIBLE </s>
-0.3010 <s> WAIT </s>
-0.3010 <s> WANT </s>
-0.3010 <s> WAS </s>
-0.3010 <s> WATCH </s>
-0.3010 <s> WATCHING </s>
-0.3010 <s> WATER </s>
-0.3010 <s> WAY </s>
-0.3010 <s> WE </s>
-0.3010 <s> WE'LL </s>
-0.3010 <s> WE'RE </s>
-0.3010 <s> WEDGES </s>
-0.3010 <s> WELL </s>
-0.3010 <s> WHAT </s>
-0.3010 <s> WHEN </s>
-0.3010 <s> WHERE </s>
-0.3010 <s> WHICH </s>
-0.3010 <s> WHILE </s>
-0.3010 <s> WHITE </s>
-0.3010 <s> WHOLE </s>
-0.3010 <s> WHY </s>
-0.3010 <s> WIFE </s>
-0.3010 <s> WILL </s>
-0.3010 <s> WINDOW </s>
-0.3010 <s> WINDOWS </s>
-0.3010 <s> WIREFRAME </s>
-0.3010 <s> WITH </s>
-0.3010 <s> WITHOUT </s>
-0.3010 <s> WON'T </s>
-0.3010 <s> WORD </s>
-0.3010 <s> WORK </s>
-0.3010 <s> WORLD </s>
-0.3010 <s> WRONG </s>
-0.3010 <s> X </s>
-0.3010 <s> X-AXIS </s>
-0.3010 <s> Y </s>
-0.3010 <s> YOU </s>
-0.3010 <s> YOU'LL </s>
-0.3010 <s> YOU'RE </s>
-0.3010 <s> YOUR </s>
-0.3010 <s> YOUTH </s>
-0.3010 <s> Z </s>
-0.3010 <s> Z-AXIS </s>
-0.3010 <s> Z-DIRECTION </s>
-0.3010 <s> ZERO </s>
-0.3010 <s> ZOOM </s>
-0.3010 THEN- POINT2 </s>

\end\
