Language model created by QuickLM on Sun Feb 19 21:17:22 EST 2017
Copyright (c) 1996-2010 Carnegie Mellon University and Alexander I. Rudnicky

The model is in standard ARPA format, designed by Doug Paul while he was at MITRE.

The code that was used to produce this language model is available in Open Source.
Please visit http://www.speech.cs.cmu.edu/tools/ for more information

The (fixed) discount mass is 0.5. The backoffs are computed using the ratio method.
This model based on a corpus of 2534 sentences and 374 words

\data\
ngram 1=374
ngram 2=749
ngram 3=385

\1-grams:
-4.1827 - -0.2954
-3.4045 . -0.2918
-4.1827 1.05 -0.2220
-3.8817 2.6 -0.2220
-4.1827 8 -0.2220
-0.7789 </s> -0.3010
-0.7789 <s> -0.2218
-2.5699 A -0.2220
-4.1827 ACROSS -0.2220
-3.4045 ADD -0.2220
-3.8817 ADJUST -0.2220
-4.1827 AFTER -0.2220
-3.7056 AGAIN -0.2220
-3.4837 ALL -0.2220
-3.8817 ALLOW -0.2220
-3.8817 ALONG -0.2220
-4.1827 ALREADY -0.2220
-3.8817 ALSO -0.2220
-4.1827 ALT -0.2220
-4.1827 AM -0.2220
-3.4045 AN -0.2220
-1.8882 AND -0.2220
-3.8817 APPLIED -0.2220
-4.1827 APPLY -0.2220
-4.1827 APPROXIMATE -0.2220
-4.1827 ARC -0.2220
-3.5806 ARE -0.2220
-4.1827 AREA -0.2220
-3.3376 AROUND -0.2220
-3.4045 ARROW -0.2220
-3.8817 ARROWS -0.2220
-3.8817 AS -0.2220
-3.7056 AT -0.2220
-3.7056 B -0.2220
-3.7056 BACK -0.2220
-4.1827 BASIC -0.2220
-3.1035 BE -0.2220
-4.1827 BEFORE -0.2220
-3.8817 BETTER -0.2220
-3.8817 BETWEEN -0.2220
-4.1827 BEVEL -0.2220
-4.1827 BEZERI -0.2220
-3.4837 BIT -0.2220
-3.8817 BLACK -0.2220
-3.8817 BLEND -0.2220
-3.1413 BLENDER -0.2218
-4.1827 BOTH -0.2220
-3.8817 BOTTOM -0.2220
-3.5806 BOX -0.2220
-4.1827 BRAND -0.2220
-3.8817 BRING -0.2220
-4.1827 BUSY -0.2220
-4.1827 BUT -0.2220
-3.0066 BUTTON -0.2220
-3.8817 BUTTONS -0.2220
-3.1827 BY -0.2220
-3.7056 CALLED -0.2220
-4.1827 CAMERA -0.2220
-2.6642 CAN -0.2220
-3.8817 CAP -0.2220
-4.1827 CENTER -0.3009
-4.1827 CERAMIC -0.2220
-3.7056 CHANGE -0.2220
-4.1827 CHANGED -0.2220
-4.1827 CHANGES -0.2220
-4.1827 CHANGING -0.2220
-4.1827 CHOOSE -0.2220
-2.9786 CIRCLE -0.2220
-2.5916 CLICK -0.2220
-3.8817 CLICKING -0.2220
-3.8817 CLOSER -0.2220
-3.1413 COME -0.2220
-4.1827 COMMAND -0.2220
-4.1827 COMMENT -0.2220
-4.1827 COMPUTER -0.2220
-4.1827 CONCLUDES -0.2220
-3.8817 CONNECT -0.2220
-4.1827 CONTROL -0.2220
-4.1827 CONVERT -0.2220
-4.1827 CONVERTED -0.2220
-4.1827 COUPLE -0.2220
-3.8817 CREATED -0.2220
-3.8817 CTRL -0.2220
-3.8817 CUBE -0.2220
-3.8817 CUBES -0.2220
-3.0366 CUP -0.2218
-4.1827 CURRENTLY -0.2220
-3.8817 CURSOR -0.2220
-3.7056 CURVE -0.2220
-3.8817 CYCLES -0.2220
-3.8817 CYLINDER -0.2220
-3.8817 D -0.2220
-4.1827 DATA -0.2220
-4.1827 DE-SELECT -0.2220
-3.1827 DELETE -0.2220
-4.1827 DELETING -0.2220
-4.1827 DEMONSTRATING -0.2220
-4.1827 DEPENDS -0.2220
-3.5806 DESELECT -0.2220
-4.1827 DID -0.2220
-4.1827 DIFFERENT -0.2220
-4.1827 DIRECTLY -0.2220
-4.1827 DIRECTORY -0.2220
-4.1827 DIVIDED -0.2220
-3.2285 DO -0.2220
-3.8817 DOES -0.2220
-4.1827 DON'T -0.2220
-2.8025 DOWN -0.2220
-4.1827 DOWNLOAD -0.2220
-3.4045 DRAG -0.2220
-3.8817 DRAW -0.2220
-4.1827 DROP-DOWN -0.2220
-2.8605 EDGE -0.2220
-3.7056 EDGES -0.2220
-3.4837 EDIT -0.2220
-4.1827 EDITING -0.2220
-4.1827 EIGHTY -0.2220
-4.1827 END -0.2220
-4.1827 ENGINE -0.2220
-3.4837 ENTER -0.2220
-3.8817 ENTRY -0.2220
-4.1827 EQUALS -0.2220
-4.1827 ESKY -0.2220
-4.1827 EVEN -0.2220
-3.2285 EVERYTHING -0.2220
-4.1827 EXAMPLE -0.2220
-4.1827 EXPAND -0.2220
-4.1827 EXTENSION -0.2220
-3.2796 F -0.2220
-3.4045 FACE -0.2220
-3.5806 FACES -0.2220
-4.1827 FAN -0.2220
-3.8817 FAR -0.2220
-3.5806 FILE -0.2220
-4.1827 FILL -0.2220
-4.1827 FINAL -0.2220
-3.8817 FINALLY -0.2220
-4.1827 FIND -0.2220
-3.8817 FINE-TUNE -0.2220
-4.1827 FINISH -0.2220
-3.5806 FIRST -0.2220
-3.7056 FIVE -0.2220
-3.4045 FOR -0.2220
-4.1827 FOUR -0.2220
-4.1827 FRAME -0.2220
-3.7056 FROM -0.2220
-3.8817 FRONT -0.2220
-4.1827 GEOMETRY -0.2220
-3.4837 GIVE -0.2220
-3.2796 GO -0.2220
-2.9274 GOING -0.2220
-3.8817 GOOD -0.2220
-3.8817 GRAB -0.2220
-2.7848 HANDLE -0.2220
-4.1827 HANDLES -0.2220
-3.7056 HAS -0.2220
-3.2285 HAVE -0.2220
-2.7056 HERE -0.2220
-3.8817 HIGHLIGHTED -0.2220
-4.1827 HILL -0.2220
-3.0688 HOLD -0.2220
-3.7056 HOLDING -0.2220
-3.8817 HOW -0.2220
-2.7677 I -0.2220
-2.8605 I'LL -0.2220
-3.1035 I'M -0.2220
-2.9523 IF -0.2220
-3.8817 IMAGE -0.2220
-4.1827 IMPORTANT -0.2220
-3.0366 IN -0.2220
-4.1827 INSTEAD -0.2220
-3.4045 INTO -0.2220
-3.0066 IS -0.2220
-2.7848 IT -0.2220
-3.5806 IT'S -0.2220
-4.1827 ITS -0.2220
-4.1827 J -0.2220
-3.5806 JOIN -0.2220
-4.1827 JOINTS -0.2220
-3.2285 JUST -0.2220
-2.7513 KEY -0.2220
-3.2796 KEYBOARD -0.2220
-4.1827 KEYS -0.2220
-3.8817 KNOW -0.2220
-4.1827 LATEST -0.2220
-4.1827 LEAVE -0.2220
-3.0688 LEFT -0.2220
-4.1827 LET -0.2220
-3.3376 LET'S -0.2220
-3.8817 LETTER -0.2220
-3.4045 LIKE -0.2220
-3.8817 LINE -0.2220
-3.8817 LINED -0.2220
-4.1827 LINES -0.2220
-3.3376 LITTLE -0.2220
-3.8817 LOOK -0.2220
-3.5806 LOOKS -0.2220
-4.1827 LOOPS -0.2220
-4.1827 MADE -0.2220
-3.4837 MAKE -0.2220
-4.1827 MAY -0.2220
-3.8817 ME -0.2220
-3.0366 MENU -0.2220
-3.5806 MESH -0.2220
-3.3376 MIDDLE -0.2220
-3.2285 MODE -0.2220
-2.9786 MOUSE -0.2220
-3.1413 MOVE -0.2220
-4.1827 MOVES -0.2220
-4.1827 MULTIPLE -0.2220
-3.7056 MY -0.2220
-4.1827 MYSELF -0.2220
-3.5806 NAME -0.2220
-3.4837 NEED -0.2220
-3.8817 NEW -0.2220
-3.2796 NEXT -0.2220
-4.1827 NINE -0.2220
-4.1827 NINETY -0.2220
-3.4837 NODE -0.2220
-3.7056 NODES -0.2220
-3.5806 NOT -0.2220
-3.7056 NOTE -0.2220
-4.1827 NOTICE -0.2220
-2.6913 NOW -0.2220
-3.0688 NUMBER -0.2220
-3.7056 NUMBERS -0.2220
-2.9039 OBJECT -0.2220
-2.8403 OF -0.2220
-3.8817 OFF -0.2220
-3.8817 OLDER -0.2220
-2.3698 ON -0.2220
-4.1827 ONCE -0.2220
-3.4837 ONE -0.2220
-3.7056 OPEN -0.2220
-3.8817 OR -0.2220
-4.1827 ORIGIN -0.3009
-3.8817 ORTHOGONAL -0.2220
-4.1827 OTHER -0.2220
-3.0066 OUR -0.2220
-3.5806 OUT -0.2220
-3.0688 OVER -0.2220
-3.2285 PAD -0.2220
-3.7056 PAN -0.2220
-4.1827 PART -0.2220
-3.2796 PATH -0.2220
-3.7056 PERCENT -0.2220
-3.8817 PERSPECTIVE -0.2220
-4.1827 PLEASE -0.2220
-4.1827 POINT -0.2220
-4.1827 PORTION -0.2220
-3.5806 POSITION -0.2220
-3.8817 POSITIONS -0.2220
-2.4925 PRESS -0.2220
-3.4045 PRESSING -0.2220
-4.1827 PREVIEW -0.2220
-3.8817 PROPERLY -0.2220
-4.1827 PULL -0.2220
-4.1827 PUT -0.2220
-4.1827 PUTTING -0.2220
-4.1827 R -0.2220
-4.1827 READY -0.2220
-4.1827 RECALL -0.2220
-3.8817 RELEASE -0.2220
-4.1827 RELOAD -0.2220
-4.1827 REMEMBER -0.2220
-3.7056 RENDER -0.2220
-3.8817 REPEAT -0.2220
-3.8817 RESOLUTION -0.2220
-2.5916 RIGHT -0.2220
-3.3376 ROTATE -0.2220
-3.5806 S -0.2220
-4.1827 SAME -0.2220
-3.7056 SAVE -0.2220
-4.1827 SAY -0.2220
-3.2796 SCALE -0.2220
-3.4045 SCROLL -0.2220
-3.5806 SECTION -0.2220
-3.1035 SEE -0.2220
-2.6145 SELECT -0.2220
-3.4045 SELECTED -0.2220
-4.1827 SELECTING -0.2220
-3.4045 SELECTION -0.2220
-3.8817 SELECTIONS -0.2220
-4.1827 SERIES -0.2220
-4.1827 SEVEN -0.2220
-3.4045 SHAPE -0.2220
-3.1413 SHIFT -0.2220
-3.5806 SHOULD -0.2220
-3.3376 SIDE -0.2220
-3.5806 SINGLE -0.2220
-4.1827 SIZE -0.2220
-4.1827 SKIP -0.2220
-4.1827 SLIDE -0.2220
-2.5199 SO -0.2220
-4.1827 SOLID -0.2220
-3.3376 SOME -0.2220
-4.1827 SPACE -0.2220
-3.7056 SQUARE -0.2220
-3.7056 START -0.2220
-4.1827 STARTUP -0.2220
-3.8817 STEP -0.2220
-3.7056 STILL -0.2220
-4.1827 SUB -0.2220
-4.1827 SUBSCRIBE -0.2220
-4.1827 SURE -0.2220
-3.8817 SWITCH -0.2220
-4.1827 THAN -0.2220
-4.1827 THANKS -0.2220
-2.6145 THAT -0.2220
-1.9574 THE -0.2220
-4.1827 THEIR -0.2220
-3.4837 THEM -0.2220
-2.2636 THEN -0.2220
-4.1827 THERE -0.2220
-3.1035 THESE -0.2220
-3.8817 THEY -0.2220
-3.8817 THING -0.2220
-4.1827 THINGS -0.2220
-4.1827 THIRD -0.2220
-2.1827 THIS -0.2220
-4.1827 THOUGH -0.2220
-3.5806 THREE -0.2220
-3.7056 TIME -0.2220
-4.1827 TIMES -0.2220
-2.1182 TO -0.2220
-3.7056 TOGETHER -0.2220
-3.8817 TOGGLES -0.2220
-3.3376 TOP -0.2220
-4.1827 TOUCHING -0.2220
-3.8817 TRIANGLE -0.2220
-4.1827 TURNING -0.2220
-4.1827 TWENTY -0.2220
-3.8817 TWO -0.2220
-3.4045 TYPE -0.2218
-4.1827 UNDER -0.2220
-4.1827 UNDERNEATH -0.2220
-3.7056 UNTIL -0.2220
-3.0688 UP -0.2220
-4.1827 UPON -0.2220
-3.7056 US -0.2220
-3.1827 USE -0.2220
-4.1827 USES -0.2220
-3.3376 USING -0.2220
-4.1827 VALUE -0.2220
-4.1827 VERIFY -0.2220
-3.4837 VERSION -0.2220
-4.1827 VERSIONS -0.2220
-3.3376 VERTICES -0.2220
-3.7056 VIDEO -0.2220
-3.1035 VIEW -0.2220
-3.4045 WANT -0.2220
-4.1827 WATCHING -0.2220
-2.8403 WE -0.2220
-3.7056 WE'LL -0.2220
-3.3376 WE'RE -0.2220
-4.1827 WE'VE -0.2220
-4.1827 WELL -0.2220
-4.1827 WHAT -0.2220
-3.4837 WHEEL -0.2220
-4.1827 WHEN -0.2220
-3.8817 WHICH -0.2220
-3.4837 WHILE -0.2220
-4.1827 WHOLE -0.2220
-3.1035 WILL -0.2220
-4.1827 WIRE -0.2220
-3.3376 WITH -0.2220
-4.1827 WORK -0.2220
-4.1827 WOULD -0.2220
-2.6642 YOU -0.2220
-4.1827 YOU'LL -0.2220
-3.4045 YOU'RE -0.2220
-3.7056 YOUR -0.2220
-4.1827 YOURSELF -0.2220
-3.3376 ZOOM -0.2220

\2-grams:
-0.3010 - AND 0.0000
-1.0792 . - 0.0000
-1.0792 . 8 0.0000
-1.0792 . AND 0.0000
-1.0792 . BLEND 0.0000
-1.0792 . OR 0.0000
-1.0792 . TO 0.0000
-0.3010 1.05 </s> -0.3010
-0.3010 2.6 </s> -0.3010
-0.3010 8 </s> -0.3010
-3.7048 <s> 1.05 0.0000
-3.4038 <s> 2.6 0.0000
-2.0921 <s> A 0.0000
-3.7048 <s> ACROSS 0.0000
-2.9267 <s> ADD 0.0000
-3.4038 <s> ADJUST 0.0000
-3.7048 <s> AFTER 0.0000
-3.2277 <s> AGAIN 0.0000
-3.0059 <s> ALL 0.0000
-3.4038 <s> ALLOW 0.0000
-3.4038 <s> ALONG 0.0000
-3.7048 <s> ALREADY 0.0000
-3.4038 <s> ALSO 0.0000
-3.7048 <s> ALT 0.0000
-3.7048 <s> AM 0.0000
-2.9267 <s> AN 0.0000
-1.4148 <s> AND 0.0000
-3.4038 <s> APPLIED 0.0000
-3.7048 <s> APPLY 0.0000
-3.7048 <s> APPROXIMATE 0.0000
-3.7048 <s> ARC 0.0000
-3.1028 <s> ARE 0.0000
-3.7048 <s> AREA 0.0000
-2.8597 <s> AROUND 0.0000
-2.9267 <s> ARROW 0.0000
-3.4038 <s> ARROWS 0.0000
-3.4038 <s> AS 0.0000
-3.2277 <s> AT 0.0000
-3.2277 <s> B 0.0000
-3.2277 <s> BACK 0.0000
-3.7048 <s> BASIC 0.0000
-2.6257 <s> BE 0.0000
-3.7048 <s> BEFORE 0.0000
-3.4038 <s> BETTER 0.0000
-3.4038 <s> BETWEEN 0.0000
-3.7048 <s> BEVEL 0.0000
-3.7048 <s> BEZERI 0.0000
-3.0059 <s> BIT 0.0000
-3.4038 <s> BLACK 0.0000
-3.7048 <s> BLEND 0.0000
-2.6634 <s> BLENDER 0.0000
-3.7048 <s> BOTH 0.0000
-3.4038 <s> BOTTOM 0.0000
-3.1028 <s> BOX 0.0000
-3.7048 <s> BRAND 0.0000
-3.4038 <s> BRING 0.0000
-3.7048 <s> BUSY 0.0000
-3.7048 <s> BUT 0.0000
-2.5287 <s> BUTTON 0.0000
-3.4038 <s> BUTTONS 0.0000
-2.7048 <s> BY 0.0000
-3.2277 <s> CALLED 0.0000
-3.7048 <s> CAMERA 0.0000
-2.1863 <s> CAN 0.0000
-3.4038 <s> CAP 0.0000
-3.7048 <s> CENTER 0.0000
-3.7048 <s> CERAMIC 0.0000
-3.2277 <s> CHANGE 0.0000
-3.7048 <s> CHANGED 0.0000
-3.7048 <s> CHANGES 0.0000
-3.7048 <s> CHANGING 0.0000
-3.7048 <s> CHOOSE 0.0000
-2.5007 <s> CIRCLE 0.0000
-2.1138 <s> CLICK 0.0000
-3.4038 <s> CLICKING 0.0000
-3.4038 <s> CLOSER 0.0000
-2.6634 <s> COME 0.0000
-3.7048 <s> COMMAND 0.0000
-3.7048 <s> COMMENT 0.0000
-3.7048 <s> COMPUTER 0.0000
-3.7048 <s> CONCLUDES 0.0000
-3.4038 <s> CONNECT 0.0000
-3.7048 <s> CONTROL 0.0000
-3.7048 <s> CONVERT 0.0000
-3.7048 <s> CONVERTED 0.0000
-3.7048 <s> COUPLE 0.0000
-3.4038 <s> CREATED 0.0000
-3.4038 <s> CTRL 0.0000
-3.4038 <s> CUBE 0.0000
-3.4038 <s> CUBES 0.0000
-2.5587 <s> CUP 0.0000
-3.7048 <s> CURRENTLY 0.0000
-3.4038 <s> CURSOR 0.0000
-3.2277 <s> CURVE 0.0000
-3.4038 <s> CYCLES 0.0000
-3.4038 <s> CYLINDER 0.0000
-3.4038 <s> D 0.0000
-3.7048 <s> DATA 0.0000
-3.7048 <s> DE-SELECT 0.0000
-2.7048 <s> DELETE 0.0000
-3.7048 <s> DELETING 0.0000
-3.7048 <s> DEMONSTRATING 0.0000
-3.7048 <s> DEPENDS 0.0000
-3.1028 <s> DESELECT 0.0000
-3.7048 <s> DID 0.0000
-3.7048 <s> DIFFERENT 0.0000
-3.7048 <s> DIRECTLY 0.0000
-3.7048 <s> DIRECTORY 0.0000
-3.7048 <s> DIVIDED 0.0000
-2.7506 <s> DO 0.0000
-3.4038 <s> DOES 0.0000
-3.7048 <s> DON'T 0.0000
-2.3246 <s> DOWN 0.0000
-3.7048 <s> DOWNLOAD 0.0000
-2.9267 <s> DRAG 0.0000
-3.4038 <s> DRAW 0.0000
-3.7048 <s> DROP-DOWN 0.0000
-2.3826 <s> EDGE 0.0000
-3.2277 <s> EDGES 0.0000
-3.0059 <s> EDIT 0.0000
-3.7048 <s> EDITING 0.0000
-3.7048 <s> EIGHTY 0.0000
-3.7048 <s> END 0.0000
-3.7048 <s> ENGINE 0.0000
-3.0059 <s> ENTER 0.0000
-3.4038 <s> ENTRY 0.0000
-3.7048 <s> EQUALS 0.0000
-3.7048 <s> ESKY 0.0000
-3.7048 <s> EVEN 0.0000
-2.7506 <s> EVERYTHING 0.0000
-3.7048 <s> EXAMPLE 0.0000
-3.7048 <s> EXPAND 0.0000
-3.7048 <s> EXTENSION 0.0000
-2.8017 <s> F 0.0000
-2.9267 <s> FACE 0.0000
-3.1028 <s> FACES 0.0000
-3.7048 <s> FAN 0.0000
-3.4038 <s> FAR 0.0000
-3.1028 <s> FILE 0.0000
-3.7048 <s> FILL 0.0000
-3.7048 <s> FINAL 0.0000
-3.4038 <s> FINALLY 0.0000
-3.7048 <s> FIND 0.0000
-3.4038 <s> FINE-TUNE 0.0000
-3.7048 <s> FINISH 0.0000
-3.1028 <s> FIRST 0.0000
-3.2277 <s> FIVE 0.0000
-2.9267 <s> FOR 0.0000
-3.7048 <s> FOUR 0.0000
-3.7048 <s> FRAME 0.0000
-3.2277 <s> FROM 0.0000
-3.4038 <s> FRONT 0.0000
-3.7048 <s> GEOMETRY 0.0000
-3.0059 <s> GIVE 0.0000
-2.8017 <s> GO 0.0000
-2.4496 <s> GOING 0.0000
-3.4038 <s> GOOD 0.0000
-3.4038 <s> GRAB 0.0000
-2.3069 <s> HANDLE 0.0000
-3.7048 <s> HANDLES 0.0000
-3.2277 <s> HAS 0.0000
-2.7506 <s> HAVE 0.0000
-2.2277 <s> HERE 0.0000
-3.4038 <s> HIGHLIGHTED 0.0000
-3.7048 <s> HILL 0.0000
-2.5909 <s> HOLD 0.0000
-3.2277 <s> HOLDING 0.0000
-3.4038 <s> HOW 0.0000
-2.2899 <s> I 0.0000
-2.3826 <s> I'LL 0.0000
-2.6257 <s> I'M 0.0000
-2.4744 <s> IF 0.0000
-3.4038 <s> IMAGE 0.0000
-3.7048 <s> IMPORTANT 0.0000
-2.5587 <s> IN 0.0000
-3.7048 <s> INSTEAD 0.0000
-2.9267 <s> INTO 0.0000
-2.5287 <s> IS 0.0000
-2.3069 <s> IT 0.0000
-3.1028 <s> IT'S 0.0000
-3.7048 <s> ITS 0.0000
-3.7048 <s> J 0.0000
-3.1028 <s> JOIN 0.0000
-3.7048 <s> JOINTS 0.0000
-2.7506 <s> JUST 0.0000
-2.2735 <s> KEY 0.0000
-2.8017 <s> KEYBOARD 0.0000
-3.7048 <s> KEYS 0.0000
-3.4038 <s> KNOW 0.0000
-3.7048 <s> LATEST 0.0000
-3.7048 <s> LEAVE 0.0000
-2.5909 <s> LEFT 0.0000
-3.7048 <s> LET 0.0000
-2.8597 <s> LET'S 0.0000
-3.4038 <s> LETTER 0.0000
-2.9267 <s> LIKE 0.0000
-3.4038 <s> LINE 0.0000
-3.4038 <s> LINED 0.0000
-3.7048 <s> LINES 0.0000
-2.8597 <s> LITTLE 0.0000
-3.4038 <s> LOOK 0.0000
-3.1028 <s> LOOKS 0.0000
-3.7048 <s> LOOPS 0.0000
-3.7048 <s> MADE 0.0000
-3.0059 <s> MAKE 0.0000
-3.7048 <s> MAY 0.0000
-3.4038 <s> ME 0.0000
-2.5587 <s> MENU 0.0000
-3.1028 <s> MESH 0.0000
-2.8597 <s> MIDDLE 0.0000
-2.7506 <s> MODE 0.0000
-2.5007 <s> MOUSE 0.0000
-2.6634 <s> MOVE 0.0000
-3.7048 <s> MOVES 0.0000
-3.7048 <s> MULTIPLE 0.0000
-3.2277 <s> MY 0.0000
-3.7048 <s> MYSELF 0.0000
-3.1028 <s> NAME 0.0000
-3.0059 <s> NEED 0.0000
-3.4038 <s> NEW 0.0000
-2.8017 <s> NEXT 0.0000
-3.7048 <s> NINE 0.0000
-3.7048 <s> NINETY 0.0000
-3.0059 <s> NODE 0.0000
-3.2277 <s> NODES 0.0000
-3.1028 <s> NOT 0.0000
-3.2277 <s> NOTE 0.0000
-3.7048 <s> NOTICE 0.0000
-2.2135 <s> NOW 0.0000
-2.5909 <s> NUMBER 0.0000
-3.2277 <s> NUMBERS 0.0000
-2.4261 <s> OBJECT 0.0000
-2.3624 <s> OF 0.0000
-3.4038 <s> OFF 0.0000
-3.4038 <s> OLDER 0.0000
-1.8919 <s> ON 0.0000
-3.7048 <s> ONCE 0.0000
-3.0059 <s> ONE 0.0000
-3.2277 <s> OPEN 0.0000
-3.7048 <s> OR 0.0000
-3.7048 <s> ORIGIN 0.0000
-3.4038 <s> ORTHOGONAL 0.0000
-3.7048 <s> OTHER 0.0000
-2.5287 <s> OUR 0.0000
-3.1028 <s> OUT 0.0000
-2.5909 <s> OVER 0.0000
-2.7506 <s> PAD 0.0000
-3.2277 <s> PAN 0.0000
-3.7048 <s> PART 0.0000
-2.8017 <s> PATH 0.0000
-3.2277 <s> PERCENT 0.0000
-3.4038 <s> PERSPECTIVE 0.0000
-3.7048 <s> PLEASE 0.0000
-3.7048 <s> POINT 0.0000
-3.7048 <s> PORTION 0.0000
-3.1028 <s> POSITION 0.0000
-3.4038 <s> POSITIONS 0.0000
-2.0146 <s> PRESS 0.0000
-2.9267 <s> PRESSING 0.0000
-3.7048 <s> PREVIEW 0.0000
-3.4038 <s> PROPERLY 0.0000
-3.7048 <s> PULL 0.0000
-3.7048 <s> PUT 0.0000
-3.7048 <s> PUTTING 0.0000
-3.7048 <s> R 0.0000
-3.7048 <s> READY 0.0000
-3.7048 <s> RECALL 0.0000
-3.4038 <s> RELEASE 0.0000
-3.7048 <s> RELOAD 0.0000
-3.7048 <s> REMEMBER 0.0000
-3.2277 <s> RENDER 0.0000
-3.4038 <s> REPEAT 0.0000
-3.4038 <s> RESOLUTION 0.0000
-2.1138 <s> RIGHT 0.0000
-2.8597 <s> ROTATE 0.0000
-3.1028 <s> S 0.0000
-3.7048 <s> SAME 0.0000
-3.2277 <s> SAVE 0.0000
-3.7048 <s> SAY 0.0000
-2.8017 <s> SCALE 0.0000
-2.9267 <s> SCROLL 0.0000
-3.1028 <s> SECTION 0.0000
-2.6257 <s> SEE 0.0000
-2.1366 <s> SELECT 0.0000
-2.9267 <s> SELECTED 0.0000
-3.7048 <s> SELECTING 0.0000
-2.9267 <s> SELECTION 0.0000
-3.4038 <s> SELECTIONS 0.0000
-3.7048 <s> SERIES 0.0000
-3.7048 <s> SEVEN 0.0000
-2.9267 <s> SHAPE 0.0000
-2.6634 <s> SHIFT 0.0000
-3.1028 <s> SHOULD 0.0000
-2.8597 <s> SIDE 0.0000
-3.1028 <s> SINGLE 0.0000
-3.7048 <s> SIZE 0.0000
-3.7048 <s> SKIP 0.0000
-3.7048 <s> SLIDE 0.0000
-2.0421 <s> SO 0.0000
-3.7048 <s> SOLID 0.0000
-2.8597 <s> SOME 0.0000
-3.7048 <s> SPACE 0.0000
-3.2277 <s> SQUARE 0.0000
-3.2277 <s> START 0.0000
-3.7048 <s> STARTUP 0.0000
-3.4038 <s> STEP 0.0000
-3.2277 <s> STILL 0.0000
-3.7048 <s> SUB 0.0000
-3.7048 <s> SUBSCRIBE 0.0000
-3.7048 <s> SURE 0.0000
-3.4038 <s> SWITCH 0.0000
-3.7048 <s> THAN 0.0000
-3.7048 <s> THANKS 0.0000
-2.1366 <s> THAT 0.0000
-1.4795 <s> THE 0.0000
-3.7048 <s> THEIR 0.0000
-3.0059 <s> THEM 0.0000
-1.7858 <s> THEN 0.0000
-3.7048 <s> THERE 0.0000
-2.6257 <s> THESE 0.0000
-3.4038 <s> THEY 0.0000
-3.4038 <s> THING 0.0000
-3.7048 <s> THINGS 0.0000
-3.7048 <s> THIRD 0.0000
-1.7048 <s> THIS 0.0000
-3.7048 <s> THOUGH 0.0000
-3.1028 <s> THREE 0.0000
-3.2277 <s> TIME 0.0000
-3.7048 <s> TIMES 0.0000
-1.6441 <s> TO 0.0000
-3.2277 <s> TOGETHER 0.0000
-3.4038 <s> TOGGLES 0.0000
-2.8597 <s> TOP 0.0000
-3.7048 <s> TOUCHING 0.0000
-3.4038 <s> TRIANGLE 0.0000
-3.7048 <s> TURNING 0.0000
-3.7048 <s> TWENTY 0.0000
-3.4038 <s> TWO 0.0000
-2.9267 <s> TYPE 0.0000
-3.7048 <s> UNDER 0.0000
-3.7048 <s> UNDERNEATH 0.0000
-3.2277 <s> UNTIL 0.0000
-2.5909 <s> UP 0.0000
-3.7048 <s> UPON 0.0000
-3.2277 <s> US 0.0000
-2.7048 <s> USE 0.0000
-3.7048 <s> USES 0.0000
-2.8597 <s> USING 0.0000
-3.7048 <s> VALUE 0.0000
-3.7048 <s> VERIFY 0.0000
-3.0059 <s> VERSION 0.0000
-3.7048 <s> VERSIONS 0.0000
-2.8597 <s> VERTICES 0.0000
-3.2277 <s> VIDEO 0.0000
-2.6257 <s> VIEW 0.0000
-2.9267 <s> WANT 0.0000
-3.7048 <s> WATCHING 0.0000
-2.3624 <s> WE 0.0000
-3.2277 <s> WE'LL 0.0000
-2.8597 <s> WE'RE 0.0000
-3.7048 <s> WE'VE 0.0000
-3.7048 <s> WELL 0.0000
-3.7048 <s> WHAT 0.0000
-3.0059 <s> WHEEL 0.0000
-3.7048 <s> WHEN 0.0000
-3.4038 <s> WHICH 0.0000
-3.0059 <s> WHILE 0.0000
-3.7048 <s> WHOLE 0.0000
-2.6257 <s> WILL 0.0000
-3.7048 <s> WIRE 0.0000
-2.8597 <s> WITH 0.0000
-3.7048 <s> WORK 0.0000
-3.7048 <s> WOULD 0.0000
-2.1863 <s> YOU 0.0000
-3.7048 <s> YOU'LL 0.0000
-2.9267 <s> YOU'RE 0.0000
-3.2277 <s> YOUR 0.0000
-3.7048 <s> YOURSELF 0.0000
-2.8597 <s> ZOOM 0.0000
-0.3010 A </s> -0.3010
-0.3010 ACROSS </s> -0.3010
-0.3010 ADD </s> -0.3010
-0.3010 ADJUST </s> -0.3010
-0.3010 AFTER </s> -0.3010
-0.3010 AGAIN </s> -0.3010
-0.3010 ALL </s> -0.3010
-0.3010 ALLOW </s> -0.3010
-0.3010 ALONG </s> -0.3010
-0.3010 ALREADY </s> -0.3010
-0.3010 ALSO </s> -0.3010
-0.3010 ALT </s> -0.3010
-0.3010 AM </s> -0.3010
-0.3010 AN </s> -0.3010
-0.3010 AND </s> -0.3010
-0.3010 APPLIED </s> -0.3010
-0.3010 APPLY </s> -0.3010
-0.3010 APPROXIMATE </s> -0.3010
-0.3010 ARC </s> -0.3010
-0.3010 ARE </s> -0.3010
-0.3010 AREA </s> -0.3010
-0.3010 AROUND </s> -0.3010
-0.3010 ARROW </s> -0.3010
-0.3010 ARROWS </s> -0.3010
-0.3010 AS </s> -0.3010
-0.3010 AT </s> -0.3010
-0.3010 B </s> -0.3010
-0.3010 BACK </s> -0.3010
-0.3010 BASIC </s> -0.3010
-0.3010 BE </s> -0.3010
-0.3010 BEFORE </s> -0.3010
-0.3010 BETTER </s> -0.3010
-0.3010 BETWEEN </s> -0.3010
-0.3010 BEVEL </s> -0.3010
-0.3010 BEZERI </s> -0.3010
-0.3010 BIT </s> -0.3010
-0.3010 BLACK </s> -0.3010
-0.3010 BLEND </s> -0.3010
-1.3424 BLENDER . -0.2632
-0.3424 BLENDER </s> -0.3010
-0.3010 BOTH </s> -0.3010
-0.3010 BOTTOM </s> -0.3010
-0.3010 BOX </s> -0.3010
-0.3010 BRAND </s> -0.3010
-0.3010 BRING </s> -0.3010
-0.3010 BUSY </s> -0.3010
-0.3010 BUT </s> -0.3010
-0.3010 BUTTON </s> -0.3010
-0.3010 BUTTONS </s> -0.3010
-0.3010 BY </s> -0.3010
-0.3010 CALLED </s> -0.3010
-0.3010 CAMERA </s> -0.3010
-0.3010 CAN </s> -0.3010
-0.3010 CAP </s> -0.3010
-0.3010 CENTER . -0.2632
-0.3010 CERAMIC </s> -0.3010
-0.3010 CHANGE </s> -0.3010
-0.3010 CHANGED </s> -0.3010
-0.3010 CHANGES </s> -0.3010
-0.3010 CHANGING </s> -0.3010
-0.3010 CHOOSE </s> -0.3010
-0.3010 CIRCLE </s> -0.3010
-0.3010 CLICK </s> -0.3010
-0.3010 CLICKING </s> -0.3010
-0.3010 CLOSER </s> -0.3010
-0.3010 COME </s> -0.3010
-0.3010 COMMAND </s> -0.3010
-0.3010 COMMENT </s> -0.3010
-0.3010 COMPUTER </s> -0.3010
-0.3010 CONCLUDES </s> -0.3010
-0.3010 CONNECT </s> -0.3010
-0.3010 CONTROL </s> -0.3010
-0.3010 CONVERT </s> -0.3010
-0.3010 CONVERTED </s> -0.3010
-0.3010 COUPLE </s> -0.3010
-0.3010 CREATED </s> -0.3010
-0.3010 CTRL </s> -0.3010
-0.3010 CUBE </s> -0.3010
-0.3010 CUBES </s> -0.3010
-1.4472 CUP . -0.2632
-0.3332 CUP </s> -0.3010
-0.3010 CURRENTLY </s> -0.3010
-0.3010 CURSOR </s> -0.3010
-0.3010 CURVE </s> -0.3010
-0.3010 CYCLES </s> -0.3010
-0.3010 CYLINDER </s> -0.3010
-0.3010 D </s> -0.3010
-0.3010 DATA </s> -0.3010
-0.3010 DE-SELECT </s> -0.3010
-0.3010 DELETE </s> -0.3010
-0.3010 DELETING </s> -0.3010
-0.3010 DEMONSTRATING </s> -0.3010
-0.3010 DEPENDS </s> -0.3010
-0.3010 DESELECT </s> -0.3010
-0.3010 DID </s> -0.3010
-0.3010 DIFFERENT </s> -0.3010
-0.3010 DIRECTLY </s> -0.3010
-0.3010 DIRECTORY </s> -0.3010
-0.3010 DIVIDED </s> -0.3010
-0.3010 DO </s> -0.3010
-0.3010 DOES </s> -0.3010
-0.3010 DON'T </s> -0.3010
-0.3010 DOWN </s> -0.3010
-0.3010 DOWNLOAD </s> -0.3010
-0.3010 DRAG </s> -0.3010
-0.3010 DRAW </s> -0.3010
-0.3010 DROP-DOWN </s> -0.3010
-0.3010 EDGE </s> -0.3010
-0.3010 EDGES </s> -0.3010
-0.3010 EDIT </s> -0.3010
-0.3010 EDITING </s> -0.3010
-0.3010 EIGHTY </s> -0.3010
-0.3010 END </s> -0.3010
-0.3010 ENGINE </s> -0.3010
-0.3010 ENTER </s> -0.3010
-0.3010 ENTRY </s> -0.3010
-0.3010 EQUALS </s> -0.3010
-0.3010 ESKY </s> -0.3010
-0.3010 EVEN </s> -0.3010
-0.3010 EVERYTHING </s> -0.3010
-0.3010 EXAMPLE </s> -0.3010
-0.3010 EXPAND </s> -0.3010
-0.3010 EXTENSION </s> -0.3010
-0.3010 F </s> -0.3010
-0.3010 FACE </s> -0.3010
-0.3010 FACES </s> -0.3010
-0.3010 FAN </s> -0.3010
-0.3010 FAR </s> -0.3010
-0.3010 FILE </s> -0.3010
-0.3010 FILL </s> -0.3010
-0.3010 FINAL </s> -0.3010
-0.3010 FINALLY </s> -0.3010
-0.3010 FIND </s> -0.3010
-0.3010 FINE-TUNE </s> -0.3010
-0.3010 FINISH </s> -0.3010
-0.3010 FIRST </s> -0.3010
-0.3010 FIVE </s> -0.3010
-0.3010 FOR </s> -0.3010
-0.3010 FOUR </s> -0.3010
-0.3010 FRAME </s> -0.3010
-0.3010 FROM </s> -0.3010
-0.3010 FRONT </s> -0.3010
-0.3010 GEOMETRY </s> -0.3010
-0.3010 GIVE </s> -0.3010
-0.3010 GO </s> -0.3010
-0.3010 GOING </s> -0.3010
-0.3010 GOOD </s> -0.3010
-0.3010 GRAB </s> -0.3010
-0.3010 HANDLE </s> -0.3010
-0.3010 HANDLES </s> -0.3010
-0.3010 HAS </s> -0.3010
-0.3010 HAVE </s> -0.3010
-0.3010 HERE </s> -0.3010
-0.3010 HIGHLIGHTED </s> -0.3010
-0.3010 HILL </s> -0.3010
-0.3010 HOLD </s> -0.3010
-0.3010 HOLDING </s> -0.3010
-0.3010 HOW </s> -0.3010
-0.3010 I </s> -0.3010
-0.3010 I'LL </s> -0.3010
-0.3010 I'M </s> -0.3010
-0.3010 IF </s> -0.3010
-0.3010 IMAGE </s> -0.3010
-0.3010 IMPORTANT </s> -0.3010
-0.3010 IN </s> -0.3010
-0.3010 INSTEAD </s> -0.3010
-0.3010 INTO </s> -0.3010
-0.3010 IS </s> -0.3010
-0.3010 IT </s> -0.3010
-0.3010 IT'S </s> -0.3010
-0.3010 ITS </s> -0.3010
-0.3010 J </s> -0.3010
-0.3010 JOIN </s> -0.3010
-0.3010 JOINTS </s> -0.3010
-0.3010 JUST </s> -0.3010
-0.3010 KEY </s> -0.3010
-0.3010 KEYBOARD </s> -0.3010
-0.3010 KEYS </s> -0.3010
-0.3010 KNOW </s> -0.3010
-0.3010 LATEST </s> -0.3010
-0.3010 LEAVE </s> -0.3010
-0.3010 LEFT </s> -0.3010
-0.3010 LET </s> -0.3010
-0.3010 LET'S </s> -0.3010
-0.3010 LETTER </s> -0.3010
-0.3010 LIKE </s> -0.3010
-0.3010 LINE </s> -0.3010
-0.3010 LINED </s> -0.3010
-0.3010 LINES </s> -0.3010
-0.3010 LITTLE </s> -0.3010
-0.3010 LOOK </s> -0.3010
-0.3010 LOOKS </s> -0.3010
-0.3010 LOOPS </s> -0.3010
-0.3010 MADE </s> -0.3010
-0.3010 MAKE </s> -0.3010
-0.3010 MAY </s> -0.3010
-0.3010 ME </s> -0.3010
-0.3010 MENU </s> -0.3010
-0.3010 MESH </s> -0.3010
-0.3010 MIDDLE </s> -0.3010
-0.3010 MODE </s> -0.3010
-0.3010 MOUSE </s> -0.3010
-0.3010 MOVE </s> -0.3010
-0.3010 MOVES </s> -0.3010
-0.3010 MULTIPLE </s> -0.3010
-0.3010 MY </s> -0.3010
-0.3010 MYSELF </s> -0.3010
-0.3010 NAME </s> -0.3010
-0.3010 NEED </s> -0.3010
-0.3010 NEW </s> -0.3010
-0.3010 NEXT </s> -0.3010
-0.3010 NINE </s> -0.3010
-0.3010 NINETY </s> -0.3010
-0.3010 NODE </s> -0.3010
-0.3010 NODES </s> -0.3010
-0.3010 NOT </s> -0.3010
-0.3010 NOTE </s> -0.3010
-0.3010 NOTICE </s> -0.3010
-0.3010 NOW </s> -0.3010
-0.3010 NUMBER </s> -0.3010
-0.3010 NUMBERS </s> -0.3010
-0.3010 OBJECT </s> -0.3010
-0.3010 OF </s> -0.3010
-0.3010 OFF </s> -0.3010
-0.3010 OLDER </s> -0.3010
-0.3010 ON </s> -0.3010
-0.3010 ONCE </s> -0.3010
-0.3010 ONE </s> -0.3010
-0.3010 OPEN </s> -0.3010
-0.3010 OR </s> -0.3010
-0.3010 ORIGIN . -0.2632
-0.3010 ORTHOGONAL </s> -0.3010
-0.3010 OTHER </s> -0.3010
-0.3010 OUR </s> -0.3010
-0.3010 OUT </s> -0.3010
-0.3010 OVER </s> -0.3010
-0.3010 PAD </s> -0.3010
-0.3010 PAN </s> -0.3010
-0.3010 PART </s> -0.3010
-0.3010 PATH </s> -0.3010
-0.3010 PERCENT </s> -0.3010
-0.3010 PERSPECTIVE </s> -0.3010
-0.3010 PLEASE </s> -0.3010
-0.3010 POINT </s> -0.3010
-0.3010 PORTION </s> -0.3010
-0.3010 POSITION </s> -0.3010
-0.3010 POSITIONS </s> -0.3010
-0.3010 PRESS </s> -0.3010
-0.3010 PRESSING </s> -0.3010
-0.3010 PREVIEW </s> -0.3010
-0.3010 PROPERLY </s> -0.3010
-0.3010 PULL </s> -0.3010
-0.3010 PUT </s> -0.3010
-0.3010 PUTTING </s> -0.3010
-0.3010 R </s> -0.3010
-0.3010 READY </s> -0.3010
-0.3010 RECALL </s> -0.3010
-0.3010 RELEASE </s> -0.3010
-0.3010 RELOAD </s> -0.3010
-0.3010 REMEMBER </s> -0.3010
-0.3010 RENDER </s> -0.3010
-0.3010 REPEAT </s> -0.3010
-0.3010 RESOLUTION </s> -0.3010
-0.3010 RIGHT </s> -0.3010
-0.3010 ROTATE </s> -0.3010
-0.3010 S </s> -0.3010
-0.3010 SAME </s> -0.3010
-0.3010 SAVE </s> -0.3010
-0.3010 SAY </s> -0.3010
-0.3010 SCALE </s> -0.3010
-0.3010 SCROLL </s> -0.3010
-0.3010 SECTION </s> -0.3010
-0.3010 SEE </s> -0.3010
-0.3010 SELECT </s> -0.3010
-0.3010 SELECTED </s> -0.3010
-0.3010 SELECTING </s> -0.3010
-0.3010 SELECTION </s> -0.3010
-0.3010 SELECTIONS </s> -0.3010
-0.3010 SERIES </s> -0.3010
-0.3010 SEVEN </s> -0.3010
-0.3010 SHAPE </s> -0.3010
-0.3010 SHIFT </s> -0.3010
-0.3010 SHOULD </s> -0.3010
-0.3010 SIDE </s> -0.3010
-0.3010 SINGLE </s> -0.3010
-0.3010 SIZE </s> -0.3010
-0.3010 SKIP </s> -0.3010
-0.3010 SLIDE </s> -0.3010
-0.3010 SO </s> -0.3010
-0.3010 SOLID </s> -0.3010
-0.3010 SOME </s> -0.3010
-0.3010 SPACE </s> -0.3010
-0.3010 SQUARE </s> -0.3010
-0.3010 START </s> -0.3010
-0.3010 STARTUP </s> -0.3010
-0.3010 STEP </s> -0.3010
-0.3010 STILL </s> -0.3010
-0.3010 SUB </s> -0.3010
-0.3010 SUBSCRIBE </s> -0.3010
-0.3010 SURE </s> -0.3010
-0.3010 SWITCH </s> -0.3010
-0.3010 THAN </s> -0.3010
-0.3010 THANKS </s> -0.3010
-0.3010 THAT </s> -0.3010
-0.3010 THE </s> -0.3010
-0.3010 THEIR </s> -0.3010
-0.3010 THEM </s> -0.3010
-0.3010 THEN </s> -0.3010
-0.3010 THERE </s> -0.3010
-0.3010 THESE </s> -0.3010
-0.3010 THEY </s> -0.3010
-0.3010 THING </s> -0.3010
-0.3010 THINGS </s> -0.3010
-0.3010 THIRD </s> -0.3010
-0.3010 THIS </s> -0.3010
-0.3010 THOUGH </s> -0.3010
-0.3010 THREE </s> -0.3010
-0.3010 TIME </s> -0.3010
-0.3010 TIMES </s> -0.3010
-0.3010 TO </s> -0.3010
-0.3010 TOGETHER </s> -0.3010
-0.3010 TOGGLES </s> -0.3010
-0.3010 TOP </s> -0.3010
-0.3010 TOUCHING </s> -0.3010
-0.3010 TRIANGLE </s> -0.3010
-0.3010 TURNING </s> -0.3010
-0.3010 TWENTY </s> -0.3010
-0.3010 TWO </s> -0.3010
-0.7782 TYPE . -0.2218
-0.4771 TYPE </s> -0.3010
-0.3010 UNDER </s> -0.3010
-0.3010 UNDERNEATH </s> -0.3010
-0.3010 UNTIL </s> -0.3010
-0.3010 UP </s> -0.3010
-0.3010 UPON </s> -0.3010
-0.3010 US </s> -0.3010
-0.3010 USE </s> -0.3010
-0.3010 USES </s> -0.3010
-0.3010 USING </s> -0.3010
-0.3010 VALUE </s> -0.3010
-0.3010 VERIFY </s> -0.3010
-0.3010 VERSION </s> -0.3010
-0.3010 VERSIONS </s> -0.3010
-0.3010 VERTICES </s> -0.3010
-0.3010 VIDEO </s> -0.3010
-0.3010 VIEW </s> -0.3010
-0.3010 WANT </s> -0.3010
-0.3010 WATCHING </s> -0.3010
-0.3010 WE </s> -0.3010
-0.3010 WE'LL </s> -0.3010
-0.3010 WE'RE </s> -0.3010
-0.3010 WE'VE </s> -0.3010
-0.3010 WELL </s> -0.3010
-0.3010 WHAT </s> -0.3010
-0.3010 WHEEL </s> -0.3010
-0.3010 WHEN </s> -0.3010
-0.3010 WHICH </s> -0.3010
-0.3010 WHILE </s> -0.3010
-0.3010 WHOLE </s> -0.3010
-0.3010 WILL </s> -0.3010
-0.3010 WIRE </s> -0.3010
-0.3010 WITH </s> -0.3010
-0.3010 WORK </s> -0.3010
-0.3010 WOULD </s> -0.3010
-0.3010 YOU </s> -0.3010
-0.3010 YOU'LL </s> -0.3010
-0.3010 YOU'RE </s> -0.3010
-0.3010 YOUR </s> -0.3010
-0.3010 YOURSELF </s> -0.3010
-0.3010 ZOOM </s> -0.3010

\3-grams:
-0.3010 - AND </s>
-0.3010 . - AND
-0.3010 . 8 </s>
-0.3010 . AND </s>
-0.3010 . BLEND </s>
-0.3010 . OR </s>
-0.3010 . TO </s>
-0.3010 <s> 1.05 </s>
-0.3010 <s> 2.6 </s>
-0.3010 <s> A </s>
-0.3010 <s> ACROSS </s>
-0.3010 <s> ADD </s>
-0.3010 <s> ADJUST </s>
-0.3010 <s> AFTER </s>
-0.3010 <s> AGAIN </s>
-0.3010 <s> ALL </s>
-0.3010 <s> ALLOW </s>
-0.3010 <s> ALONG </s>
-0.3010 <s> ALREADY </s>
-0.3010 <s> ALSO </s>
-0.3010 <s> ALT </s>
-0.3010 <s> AM </s>
-0.3010 <s> AN </s>
-0.3010 <s> AND </s>
-0.3010 <s> APPLIED </s>
-0.3010 <s> APPLY </s>
-0.3010 <s> APPROXIMATE </s>
-0.3010 <s> ARC </s>
-0.3010 <s> ARE </s>
-0.3010 <s> AREA </s>
-0.3010 <s> AROUND </s>
-0.3010 <s> ARROW </s>
-0.3010 <s> ARROWS </s>
-0.3010 <s> AS </s>
-0.3010 <s> AT </s>
-0.3010 <s> B </s>
-0.3010 <s> BACK </s>
-0.3010 <s> BASIC </s>
-0.3010 <s> BE </s>
-0.3010 <s> BEFORE </s>
-0.3010 <s> BETTER </s>
-0.3010 <s> BETWEEN </s>
-0.3010 <s> BEVEL </s>
-0.3010 <s> BEZERI </s>
-0.3010 <s> BIT </s>
-0.3010 <s> BLACK </s>
-0.3010 <s> BLEND </s>
-1.3424 <s> BLENDER .
-0.3424 <s> BLENDER </s>
-0.3010 <s> BOTH </s>
-0.3010 <s> BOTTOM </s>
-0.3010 <s> BOX </s>
-0.3010 <s> BRAND </s>
-0.3010 <s> BRING </s>
-0.3010 <s> BUSY </s>
-0.3010 <s> BUT </s>
-0.3010 <s> BUTTON </s>
-0.3010 <s> BUTTONS </s>
-0.3010 <s> BY </s>
-0.3010 <s> CALLED </s>
-0.3010 <s> CAMERA </s>
-0.3010 <s> CAN </s>
-0.3010 <s> CAP </s>
-0.3010 <s> CENTER .
-0.3010 <s> CERAMIC </s>
-0.3010 <s> CHANGE </s>
-0.3010 <s> CHANGED </s>
-0.3010 <s> CHANGES </s>
-0.3010 <s> CHANGING </s>
-0.3010 <s> CHOOSE </s>
-0.3010 <s> CIRCLE </s>
-0.3010 <s> CLICK </s>
-0.3010 <s> CLICKING </s>
-0.3010 <s> CLOSER </s>
-0.3010 <s> COME </s>
-0.3010 <s> COMMAND </s>
-0.3010 <s> COMMENT </s>
-0.3010 <s> COMPUTER </s>
-0.3010 <s> CONCLUDES </s>
-0.3010 <s> CONNECT </s>
-0.3010 <s> CONTROL </s>
-0.3010 <s> CONVERT </s>
-0.3010 <s> CONVERTED </s>
-0.3010 <s> COUPLE </s>
-0.3010 <s> CREATED </s>
-0.3010 <s> CTRL </s>
-0.3010 <s> CUBE </s>
-0.3010 <s> CUBES </s>
-1.4472 <s> CUP .
-0.3332 <s> CUP </s>
-0.3010 <s> CURRENTLY </s>
-0.3010 <s> CURSOR </s>
-0.3010 <s> CURVE </s>
-0.3010 <s> CYCLES </s>
-0.3010 <s> CYLINDER </s>
-0.3010 <s> D </s>
-0.3010 <s> DATA </s>
-0.3010 <s> DE-SELECT </s>
-0.3010 <s> DELETE </s>
-0.3010 <s> DELETING </s>
-0.3010 <s> DEMONSTRATING </s>
-0.3010 <s> DEPENDS </s>
-0.3010 <s> DESELECT </s>
-0.3010 <s> DID </s>
-0.3010 <s> DIFFERENT </s>
-0.3010 <s> DIRECTLY </s>
-0.3010 <s> DIRECTORY </s>
-0.3010 <s> DIVIDED </s>
-0.3010 <s> DO </s>
-0.3010 <s> DOES </s>
-0.3010 <s> DON'T </s>
-0.3010 <s> DOWN </s>
-0.3010 <s> DOWNLOAD </s>
-0.3010 <s> DRAG </s>
-0.3010 <s> DRAW </s>
-0.3010 <s> DROP-DOWN </s>
-0.3010 <s> EDGE </s>
-0.3010 <s> EDGES </s>
-0.3010 <s> EDIT </s>
-0.3010 <s> EDITING </s>
-0.3010 <s> EIGHTY </s>
-0.3010 <s> END </s>
-0.3010 <s> ENGINE </s>
-0.3010 <s> ENTER </s>
-0.3010 <s> ENTRY </s>
-0.3010 <s> EQUALS </s>
-0.3010 <s> ESKY </s>
-0.3010 <s> EVEN </s>
-0.3010 <s> EVERYTHING </s>
-0.3010 <s> EXAMPLE </s>
-0.3010 <s> EXPAND </s>
-0.3010 <s> EXTENSION </s>
-0.3010 <s> F </s>
-0.3010 <s> FACE </s>
-0.3010 <s> FACES </s>
-0.3010 <s> FAN </s>
-0.3010 <s> FAR </s>
-0.3010 <s> FILE </s>
-0.3010 <s> FILL </s>
-0.3010 <s> FINAL </s>
-0.3010 <s> FINALLY </s>
-0.3010 <s> FIND </s>
-0.3010 <s> FINE-TUNE </s>
-0.3010 <s> FINISH </s>
-0.3010 <s> FIRST </s>
-0.3010 <s> FIVE </s>
-0.3010 <s> FOR </s>
-0.3010 <s> FOUR </s>
-0.3010 <s> FRAME </s>
-0.3010 <s> FROM </s>
-0.3010 <s> FRONT </s>
-0.3010 <s> GEOMETRY </s>
-0.3010 <s> GIVE </s>
-0.3010 <s> GO </s>
-0.3010 <s> GOING </s>
-0.3010 <s> GOOD </s>
-0.3010 <s> GRAB </s>
-0.3010 <s> HANDLE </s>
-0.3010 <s> HANDLES </s>
-0.3010 <s> HAS </s>
-0.3010 <s> HAVE </s>
-0.3010 <s> HERE </s>
-0.3010 <s> HIGHLIGHTED </s>
-0.3010 <s> HILL </s>
-0.3010 <s> HOLD </s>
-0.3010 <s> HOLDING </s>
-0.3010 <s> HOW </s>
-0.3010 <s> I </s>
-0.3010 <s> I'LL </s>
-0.3010 <s> I'M </s>
-0.3010 <s> IF </s>
-0.3010 <s> IMAGE </s>
-0.3010 <s> IMPORTANT </s>
-0.3010 <s> IN </s>
-0.3010 <s> INSTEAD </s>
-0.3010 <s> INTO </s>
-0.3010 <s> IS </s>
-0.3010 <s> IT </s>
-0.3010 <s> IT'S </s>
-0.3010 <s> ITS </s>
-0.3010 <s> J </s>
-0.3010 <s> JOIN </s>
-0.3010 <s> JOINTS </s>
-0.3010 <s> JUST </s>
-0.3010 <s> KEY </s>
-0.3010 <s> KEYBOARD </s>
-0.3010 <s> KEYS </s>
-0.3010 <s> KNOW </s>
-0.3010 <s> LATEST </s>
-0.3010 <s> LEAVE </s>
-0.3010 <s> LEFT </s>
-0.3010 <s> LET </s>
-0.3010 <s> LET'S </s>
-0.3010 <s> LETTER </s>
-0.3010 <s> LIKE </s>
-0.3010 <s> LINE </s>
-0.3010 <s> LINED </s>
-0.3010 <s> LINES </s>
-0.3010 <s> LITTLE </s>
-0.3010 <s> LOOK </s>
-0.3010 <s> LOOKS </s>
-0.3010 <s> LOOPS </s>
-0.3010 <s> MADE </s>
-0.3010 <s> MAKE </s>
-0.3010 <s> MAY </s>
-0.3010 <s> ME </s>
-0.3010 <s> MENU </s>
-0.3010 <s> MESH </s>
-0.3010 <s> MIDDLE </s>
-0.3010 <s> MODE </s>
-0.3010 <s> MOUSE </s>
-0.3010 <s> MOVE </s>
-0.3010 <s> MOVES </s>
-0.3010 <s> MULTIPLE </s>
-0.3010 <s> MY </s>
-0.3010 <s> MYSELF </s>
-0.3010 <s> NAME </s>
-0.3010 <s> NEED </s>
-0.3010 <s> NEW </s>
-0.3010 <s> NEXT </s>
-0.3010 <s> NINE </s>
-0.3010 <s> NINETY </s>
-0.3010 <s> NODE </s>
-0.3010 <s> NODES </s>
-0.3010 <s> NOT </s>
-0.3010 <s> NOTE </s>
-0.3010 <s> NOTICE </s>
-0.3010 <s> NOW </s>
-0.3010 <s> NUMBER </s>
-0.3010 <s> NUMBERS </s>
-0.3010 <s> OBJECT </s>
-0.3010 <s> OF </s>
-0.3010 <s> OFF </s>
-0.3010 <s> OLDER </s>
-0.3010 <s> ON </s>
-0.3010 <s> ONCE </s>
-0.3010 <s> ONE </s>
-0.3010 <s> OPEN </s>
-0.3010 <s> OR </s>
-0.3010 <s> ORIGIN .
-0.3010 <s> ORTHOGONAL </s>
-0.3010 <s> OTHER </s>
-0.3010 <s> OUR </s>
-0.3010 <s> OUT </s>
-0.3010 <s> OVER </s>
-0.3010 <s> PAD </s>
-0.3010 <s> PAN </s>
-0.3010 <s> PART </s>
-0.3010 <s> PATH </s>
-0.3010 <s> PERCENT </s>
-0.3010 <s> PERSPECTIVE </s>
-0.3010 <s> PLEASE </s>
-0.3010 <s> POINT </s>
-0.3010 <s> PORTION </s>
-0.3010 <s> POSITION </s>
-0.3010 <s> POSITIONS </s>
-0.3010 <s> PRESS </s>
-0.3010 <s> PRESSING </s>
-0.3010 <s> PREVIEW </s>
-0.3010 <s> PROPERLY </s>
-0.3010 <s> PULL </s>
-0.3010 <s> PUT </s>
-0.3010 <s> PUTTING </s>
-0.3010 <s> R </s>
-0.3010 <s> READY </s>
-0.3010 <s> RECALL </s>
-0.3010 <s> RELEASE </s>
-0.3010 <s> RELOAD </s>
-0.3010 <s> REMEMBER </s>
-0.3010 <s> RENDER </s>
-0.3010 <s> REPEAT </s>
-0.3010 <s> RESOLUTION </s>
-0.3010 <s> RIGHT </s>
-0.3010 <s> ROTATE </s>
-0.3010 <s> S </s>
-0.3010 <s> SAME </s>
-0.3010 <s> SAVE </s>
-0.3010 <s> SAY </s>
-0.3010 <s> SCALE </s>
-0.3010 <s> SCROLL </s>
-0.3010 <s> SECTION </s>
-0.3010 <s> SEE </s>
-0.3010 <s> SELECT </s>
-0.3010 <s> SELECTED </s>
-0.3010 <s> SELECTING </s>
-0.3010 <s> SELECTION </s>
-0.3010 <s> SELECTIONS </s>
-0.3010 <s> SERIES </s>
-0.3010 <s> SEVEN </s>
-0.3010 <s> SHAPE </s>
-0.3010 <s> SHIFT </s>
-0.3010 <s> SHOULD </s>
-0.3010 <s> SIDE </s>
-0.3010 <s> SINGLE </s>
-0.3010 <s> SIZE </s>
-0.3010 <s> SKIP </s>
-0.3010 <s> SLIDE </s>
-0.3010 <s> SO </s>
-0.3010 <s> SOLID </s>
-0.3010 <s> SOME </s>
-0.3010 <s> SPACE </s>
-0.3010 <s> SQUARE </s>
-0.3010 <s> START </s>
-0.3010 <s> STARTUP </s>
-0.3010 <s> STEP </s>
-0.3010 <s> STILL </s>
-0.3010 <s> SUB </s>
-0.3010 <s> SUBSCRIBE </s>
-0.3010 <s> SURE </s>
-0.3010 <s> SWITCH </s>
-0.3010 <s> THAN </s>
-0.3010 <s> THANKS </s>
-0.3010 <s> THAT </s>
-0.3010 <s> THE </s>
-0.3010 <s> THEIR </s>
-0.3010 <s> THEM </s>
-0.3010 <s> THEN </s>
-0.3010 <s> THERE </s>
-0.3010 <s> THESE </s>
-0.3010 <s> THEY </s>
-0.3010 <s> THING </s>
-0.3010 <s> THINGS </s>
-0.3010 <s> THIRD </s>
-0.3010 <s> THIS </s>
-0.3010 <s> THOUGH </s>
-0.3010 <s> THREE </s>
-0.3010 <s> TIME </s>
-0.3010 <s> TIMES </s>
-0.3010 <s> TO </s>
-0.3010 <s> TOGETHER </s>
-0.3010 <s> TOGGLES </s>
-0.3010 <s> TOP </s>
-0.3010 <s> TOUCHING </s>
-0.3010 <s> TRIANGLE </s>
-0.3010 <s> TURNING </s>
-0.3010 <s> TWENTY </s>
-0.3010 <s> TWO </s>
-0.7782 <s> TYPE .
-0.4771 <s> TYPE </s>
-0.3010 <s> UNDER </s>
-0.3010 <s> UNDERNEATH </s>
-0.3010 <s> UNTIL </s>
-0.3010 <s> UP </s>
-0.3010 <s> UPON </s>
-0.3010 <s> US </s>
-0.3010 <s> USE </s>
-0.3010 <s> USES </s>
-0.3010 <s> USING </s>
-0.3010 <s> VALUE </s>
-0.3010 <s> VERIFY </s>
-0.3010 <s> VERSION </s>
-0.3010 <s> VERSIONS </s>
-0.3010 <s> VERTICES </s>
-0.3010 <s> VIDEO </s>
-0.3010 <s> VIEW </s>
-0.3010 <s> WANT </s>
-0.3010 <s> WATCHING </s>
-0.3010 <s> WE </s>
-0.3010 <s> WE'LL </s>
-0.3010 <s> WE'RE </s>
-0.3010 <s> WE'VE </s>
-0.3010 <s> WELL </s>
-0.3010 <s> WHAT </s>
-0.3010 <s> WHEEL </s>
-0.3010 <s> WHEN </s>
-0.3010 <s> WHICH </s>
-0.3010 <s> WHILE </s>
-0.3010 <s> WHOLE </s>
-0.3010 <s> WILL </s>
-0.3010 <s> WIRE </s>
-0.3010 <s> WITH </s>
-0.3010 <s> WORK </s>
-0.3010 <s> WOULD </s>
-0.3010 <s> YOU </s>
-0.3010 <s> YOU'LL </s>
-0.3010 <s> YOU'RE </s>
-0.3010 <s> YOUR </s>
-0.3010 <s> YOURSELF </s>
-0.3010 <s> ZOOM </s>
-0.3010 BLENDER . OR
-0.3010 CENTER . TO
-0.3010 CUP . BLEND
-0.3010 ORIGIN . AND
-0.6021 TYPE . -
-0.6021 TYPE . 8

\end\
